{
  "layers": [
    {
      "out_depth": 212,
      "out_sx": 1,
      "out_sy": 1,
      "layer_type": "input"
    },
    {
      "out_depth": 40,
      "out_sx": 1,
      "out_sy": 1,
      "layer_type": "fc",
      "num_inputs": 212,
      "l1_decay_mul": 0,
      "l2_decay_mul": 1,
      "filters": [
        {
          "sx": 1,
          "sy": 1,
          "depth": 212,
          "w": {
            "0": -9.300397456237616e-223,
            "1": -7.393211652827825e-223,
            "2": 7.042462707553534e-224,
            "3": -1.699448898938864e-224,
            "4": -9.348084249408012e-222,
            "5": -7.031730143253108e-222,
            "6": -5.4418170632643957e-222,
            "7": -4.8279896783958563e-222,
            "8": 4.702154598802302e-224,
            "9": -2.9051163780224813e-224,
            "10": 7.387348881730183e-225,
            "11": -2.596697909060862e-224,
            "12": -1.0598757605496571e-221,
            "13": -8.63350288548131e-222,
            "14": -3.052966261696352e-222,
            "15": -2.2184791124327625e-222,
            "16": 2.7968369648004455e-223,
            "17": -1.258747777655332e-223,
            "18": 3.155698534915546e-225,
            "19": 9.563235264103687e-225,
            "20": -1.0233210837711288e-221,
            "21": -7.541075812954591e-222,
            "22": -2.0883750518529313e-222,
            "23": -6.735401867348936e-223,
            "24": 3.0607763579489357e-223,
            "25": -7.386059214500026e-224,
            "26": -7.447656654075587e-224,
            "27": -1.0886931698170623e-223,
            "28": -4.48596481550737e-222,
            "29": -3.718234007669727e-222,
            "30": -5.36099343732397e-223,
            "31": 2.1886728819665257e-224,
            "32": 1.0149522892111593e-222,
            "33": 9.3327889656672e-225,
            "34": 2.2310702133411205e-223,
            "35": 8.946265659449005e-224,
            "36": -2.3738967817169574e-222,
            "37": -1.3750340337986535e-222,
            "38": -8.643811547465797e-223,
            "39": -7.170655016549274e-224,
            "40": 1.1347827564615647e-222,
            "41": -8.444900577735374e-225,
            "42": 1.372463819479768e-226,
            "43": 2.9847660140454536e-224,
            "44": -2.5028115111309286e-222,
            "45": -2.17270739442511e-222,
            "46": -1.196460345836068e-222,
            "47": -7.279740224458768e-223,
            "48": 6.405042656521051e-224,
            "49": 1.586562468019408e-223,
            "50": 3.536373511734921e-224,
            "51": -1.7311234345360344e-224,
            "52": -8.488404568842274e-223,
            "53": -5.114153774766698e-223,
            "54": -1.5797337132297718e-223,
            "55": -2.574623298752165e-224,
            "56": 5.984180016809888e-223,
            "57": 4.2462448936676663e-224,
            "58": -9.880264682213039e-225,
            "59": 5.811636674913983e-224,
            "60": -1.3184463347363465e-222,
            "61": -6.555028712580732e-223,
            "62": 9.368417921301345e-225,
            "63": -8.096071180976691e-224,
            "64": 4.172906843563636e-223,
            "65": -6.004104065062975e-224,
            "66": 4.4024206775205605e-225,
            "67": 2.308177901689143e-225,
            "68": 1.816753028192629e-224,
            "69": 9.805139496584254e-224,
            "70": 5.794888858048569e-226,
            "71": 1.998402857377489e-224,
            "72": -9.893833709363122e-224,
            "73": 5.960358920149035e-224,
            "74": 2.437684489857985e-224,
            "75": 1.3647007939916151e-224,
            "76": 2.889526183858029e-225,
            "77": 3.739216346021141e-224,
            "78": 6.740559941491167e-225,
            "79": -2.193266391100348e-224,
            "80": 4.170275074087782e-223,
            "81": 1.3962884391270538e-224,
            "82": 3.7556899336573473e-224,
            "83": -1.953911490741008e-224,
            "84": -5.903353272129123e-223,
            "85": -2.229660040586717e-224,
            "86": 8.183692718510042e-225,
            "87": 1.5258022972209773e-225,
            "88": 6.657883481895796e-223,
            "89": -6.3627264392819674e-223,
            "90": -9.602217103648193e-224,
            "91": -4.035464082050715e-224,
            "92": -1.199456797475033e-223,
            "93": -4.0721695651480806e-224,
            "94": 8.79916445827853e-225,
            "95": -2.4857597912707876e-225,
            "96": 4.924313053596735e-223,
            "97": 2.8864405577411373e-224,
            "98": 2.2803854595736926e-225,
            "99": -1.865488428315193e-224,
            "100": -1.7594734623226452e-222,
            "101": -1.1906166607910488e-222,
            "102": -6.258182947418261e-223,
            "103": -5.731602386352713e-223,
            "104": 2.11359950671037e-223,
            "105": -9.375288961567089e-226,
            "106": -4.8783047881195e-224,
            "107": 1.1654809984667476e-224,
            "108": -2.0864984134595218e-223,
            "109": -4.184318079212461e-224,
            "110": 3.0380923854542523e-225,
            "111": -1.2904961656787398e-224,
            "112": 3.039155973060967e-223,
            "113": -1.4295383205034594e-224,
            "114": 1.1407022063379077e-224,
            "115": 1.7667611086491924e-224,
            "116": -1.104296473018363e-223,
            "117": -8.848895429610549e-224,
            "118": -1.4491777457461424e-224,
            "119": 1.2119084848594352e-224,
            "120": 3.3648381905220428e-223,
            "121": -8.83279372256631e-224,
            "122": -3.7404681499706786e-225,
            "123": 2.518288340292758e-224,
            "124": -9.012075666595583e-225,
            "125": 6.626892991967872e-224,
            "126": 4.346228213581434e-224,
            "127": 2.738893168353311e-224,
            "128": -1.0461672813998514e-222,
            "129": -1.102219547165103e-222,
            "130": -4.518712587844913e-223,
            "131": -1.482346486705369e-223,
            "132": 2.3389549884437135e-223,
            "133": 9.575240401777294e-224,
            "134": -2.686946516906897e-224,
            "135": -8.552582666042165e-225,
            "136": -3.2110410567465126e-223,
            "137": -4.128466686614775e-223,
            "138": -2.3154790477064233e-223,
            "139": 4.752638281946086e-224,
            "140": -2.546238379791827e-223,
            "141": 4.974678449612111e-224,
            "142": 7.743369056585408e-225,
            "143": -6.112807296495162e-225,
            "144": -2.130972526936204e-223,
            "145": -1.3041165036679809e-222,
            "146": -8.56169397788652e-223,
            "147": -7.886655917212684e-223,
            "148": -1.2932240565512555e-222,
            "149": 1.3444032988391522e-223,
            "150": 3.054361352745756e-224,
            "151": 2.0191643943961195e-226,
            "152": 2.6007158905268204e-222,
            "153": 1.3760275582424164e-222,
            "154": -1.8572786388379502e-224,
            "155": 2.699419146580151e-224,
            "156": -7.42853871868098e-223,
            "157": -1.1244226414223818e-223,
            "158": -7.332586913963646e-224,
            "159": -6.986086535227262e-226,
            "160": 6.018745781252602e-222,
            "161": 5.170354129991763e-222,
            "162": -4.5054757019138725e-223,
            "163": -1.4770390074658533e-223,
            "164": -1.1705703896566175e-223,
            "165": 7.685912878303619e-224,
            "166": 1.345571540611006e-223,
            "167": 1.649106211050036e-224,
            "168": 9.903857207935402e-222,
            "169": 8.333779410389865e-222,
            "170": 1.7985750884722302e-222,
            "171": 5.93280063964904e-223,
            "172": -7.557541971926407e-223,
            "173": -1.4371848628268183e-223,
            "174": 5.996782314794449e-224,
            "175": 1.2294483174113496e-223,
            "176": 9.283801464954167e-222,
            "177": 7.471998914594849e-222,
            "178": 4.007752527813489e-222,
            "179": 1.6369140735324372e-222,
            "180": 8.176687508392921e-224,
            "181": 1.7854948818852557e-225,
            "182": 4.789995350125574e-224,
            "183": 2.1807547402628454e-224,
            "184": 1.042267775950622e-221,
            "185": 8.506368199270736e-222,
            "186": 5.509540819188604e-222,
            "187": 4.820551719828279e-222,
            "188": -1.2936399407596561e-222,
            "189": -1.2709845790342053e-222,
            "190": -3.613910198298197e-223,
            "191": 7.096887049684014e-224,
            "192": -1.882138148493383e-223,
            "193": 1.2029732993058237e-223,
            "194": -1.0359772597641284e-224,
            "195": 3.0063666603823365e-224,
            "196": -5.420292384266067e-223,
            "197": -5.316964316635532e-224,
            "198": -2.6561455745748284e-224,
            "199": 2.096693756478237e-225,
            "200": -1.3788841831448719e-222,
            "201": -1.834533601681887e-222,
            "202": -1.7453278339917938e-222,
            "203": -2.551849290741952e-222,
            "204": -2.818843357058095e-222,
            "205": -4.1505215776255176e-222,
            "206": 5.886774040923237e-222,
            "207": 5.997549391468008e-222,
            "208": 5.991159977764311e-222,
            "209": 7.229013256420952e-222,
            "210": 7.269344231707899e-222,
            "211": 7.438530556704703e-222
          }
        },
        {
          "sx": 1,
          "sy": 1,
          "depth": 212,
          "w": {
            "0": 6.812925344721e-223,
            "1": 6.12738774868407e-223,
            "2": -1.6050031335014676e-224,
            "3": 8.704586309545307e-225,
            "4": 8.227182152007218e-222,
            "5": 6.27803540586133e-222,
            "6": 4.88478247014099e-222,
            "7": 4.237965465983804e-222,
            "8": -3.2026052197073394e-224,
            "9": 3.745570497490204e-224,
            "10": -2.39169964629296e-224,
            "11": 1.761604641189714e-224,
            "12": 9.373912621443699e-222,
            "13": 7.58940539681967e-222,
            "14": 2.9462196058553373e-222,
            "15": 2.07143086804855e-222,
            "16": -2.9655699077637948e-223,
            "17": 6.955888012470676e-224,
            "18": -2.330954937201213e-224,
            "19": -3.932117696820078e-224,
            "20": 8.932460814522291e-222,
            "21": 6.571140116892132e-222,
            "22": 1.733518943427909e-222,
            "23": 5.275019237616986e-223,
            "24": -3.68180738589831e-223,
            "25": -3.485895684384583e-225,
            "26": 4.508129451253905e-224,
            "27": 1.6155046740808426e-224,
            "28": 3.9258075610530956e-222,
            "29": 3.406758460556522e-222,
            "30": 4.2230682071621885e-223,
            "31": -3.674555794202523e-224,
            "32": -1.0919027349360225e-222,
            "33": -5.404147009931363e-224,
            "34": -1.870738890775324e-223,
            "35": -1.370379524485508e-223,
            "36": 2.2035233341428974e-222,
            "37": 1.3486221564882783e-222,
            "38": 6.583444397037554e-223,
            "39": 4.2126689300752064e-224,
            "40": -6.147428363280663e-223,
            "41": -2.1704583476480537e-224,
            "42": 3.948374332408254e-224,
            "43": 5.3477119383860597e-225,
            "44": 2.0069516865014948e-222,
            "45": 1.761166038560873e-222,
            "46": 9.151203632280414e-223,
            "47": 4.425355373331114e-223,
            "48": -6.92102736577218e-224,
            "49": -1.663453099651888e-223,
            "50": -1.9135796947678053e-224,
            "51": 6.878980822290912e-225,
            "52": 7.899942241778065e-223,
            "53": 3.4005514508837055e-223,
            "54": 8.828614764162902e-224,
            "55": 3.3967282879274687e-224,
            "56": -5.081577779387328e-223,
            "57": -3.2768955002584205e-224,
            "58": 8.529901136121499e-225,
            "59": -7.01593808256875e-226,
            "60": 9.098406518612755e-223,
            "61": 3.610897185614961e-223,
            "62": -5.327961017813954e-224,
            "63": 8.5651330719518445e-224,
            "64": -1.8263459647518254e-223,
            "65": 3.051776875899271e-224,
            "66": -1.53994510453413e-224,
            "67": -1.544373661067867e-224,
            "68": -5.753554341219518e-224,
            "69": -7.367434845080377e-224,
            "70": 2.5876375796825695e-224,
            "71": 5.86998444913139e-225,
            "72": 1.0633154022776414e-223,
            "73": -3.0774334404815037e-224,
            "74": 4.0940437623826097e-224,
            "75": -1.2025728232493765e-224,
            "76": -5.091934327665853e-225,
            "77": 3.249374131357658e-226,
            "78": 4.8938541591360913e-225,
            "79": -3.088950680967422e-224,
            "80": -3.916229018937042e-223,
            "81": 1.6355418501051414e-225,
            "82": -8.996439798331726e-225,
            "83": 4.475157060439492e-224,
            "84": 5.69794799706916e-223,
            "85": -2.704438942341953e-224,
            "86": -3.5719387414161174e-224,
            "87": -5.2250634396008076e-225,
            "88": -2.5655604745626208e-223,
            "89": 4.133863787515324e-223,
            "90": 4.560588859156757e-224,
            "91": 1.360206830937322e-224,
            "92": 1.0402021181434058e-223,
            "93": 8.310070325896252e-224,
            "94": 5.441139808564683e-224,
            "95": -4.559221187796941e-224,
            "96": -5.105088339671917e-223,
            "97": -1.792963715579583e-224,
            "98": -1.631828929560531e-224,
            "99": -3.5612447690715803e-224,
            "100": 1.3569357205223115e-222,
            "101": 8.383177844486868e-223,
            "102": 4.515803992840773e-223,
            "103": 4.0985486939211054e-223,
            "104": -2.1183567528553284e-224,
            "105": -3.1883809163266187e-224,
            "106": -2.426365029862301e-224,
            "107": -2.484426391454318e-224,
            "108": 2.0974866662974588e-223,
            "109": 5.418794961186497e-224,
            "110": -1.7448591598290879e-224,
            "111": -1.386043095752466e-224,
            "112": -2.5755238934719005e-223,
            "113": 2.837434169955204e-224,
            "114": 2.854888453389953e-224,
            "115": 1.105948445851891e-224,
            "116": 2.183331527397568e-223,
            "117": 2.952009062245425e-224,
            "118": 2.8807104583435487e-224,
            "119": -3.4265280202475746e-224,
            "120": -2.673856109487333e-223,
            "121": 1.4708645873005374e-223,
            "122": 7.298840863135867e-225,
            "123": 9.244672404408109e-225,
            "124": 5.7095933622727755e-224,
            "125": 5.880312254518162e-225,
            "126": 1.2509081419400953e-224,
            "127": 2.070970009700619e-225,
            "128": 7.185404616520783e-223,
            "129": 7.173805182423297e-223,
            "130": 3.25747283195259e-223,
            "131": 1.4065584801005032e-223,
            "132": -2.3807854003893127e-223,
            "133": -2.6488199171677364e-224,
            "134": -3.862795154635563e-225,
            "135": -1.5702901981448503e-225,
            "136": 1.918928287730318e-223,
            "137": 2.5215714595595276e-223,
            "138": 2.0464536490205215e-223,
            "139": -9.082928845331207e-225,
            "140": 2.662801650086647e-223,
            "141": 5.040372072010986e-225,
            "142": -7.581008822591894e-226,
            "143": 3.747138125837562e-224,
            "144": 4.3624908465702886e-223,
            "145": 8.920033695566796e-223,
            "146": 5.450938425905561e-223,
            "147": 5.018780805036978e-223,
            "148": 1.2505445963884131e-222,
            "149": -6.456878832628955e-224,
            "150": -2.7859669394844573e-224,
            "151": -1.6150888509531877e-224,
            "152": -2.2669747896971215e-222,
            "153": -1.3157663789451404e-222,
            "154": -2.559456847507385e-224,
            "155": -4.1685608709042423e-224,
            "156": 9.785715196946116e-223,
            "157": 9.242809667927203e-224,
            "158": 9.171203684115412e-224,
            "159": 2.34837021443817e-224,
            "160": -4.2170610179860445e-222,
            "161": -3.410700406858956e-222,
            "162": 4.6559587347934045e-223,
            "163": 1.1858861503360407e-223,
            "164": 1.0268526777697075e-223,
            "165": -1.0263277019175186e-223,
            "166": -4.747488080575181e-224,
            "167": -6.38102936756179e-225,
            "168": -7.586650276251824e-222,
            "169": -6.295286227270962e-222,
            "170": -1.5074894808560383e-222,
            "171": -5.111141715576791e-223,
            "172": 5.548590193088e-223,
            "173": 1.169896569394461e-223,
            "174": -8.011052774635447e-224,
            "175": -8.659868825073471e-224,
            "176": -7.245353084399223e-222,
            "177": -5.468494522613513e-222,
            "178": -2.2781045482761077e-222,
            "179": -6.153661195910893e-223,
            "180": -3.5708150554729815e-224,
            "181": 2.4093147966767478e-225,
            "182": -3.641870573392716e-224,
            "183": 3.177775585936808e-224,
            "184": -7.800329034284402e-222,
            "185": -6.334968784613689e-222,
            "186": -3.6670475659394485e-222,
            "187": -3.0173428666287336e-222,
            "188": 9.160514881730287e-223,
            "189": 9.30141206355001e-223,
            "190": 2.465540003187196e-223,
            "191": -5.292668313643936e-224,
            "192": 1.0875956628909656e-223,
            "193": -1.1237906130808201e-223,
            "194": 3.7640402097125517e-224,
            "195": 2.271949130123084e-224,
            "196": 4.829976232243642e-223,
            "197": 8.725871135727895e-224,
            "198": -1.7571537311688606e-224,
            "199": 1.2506813669631556e-224,
            "200": 1.1987853728915499e-222,
            "201": 1.3851671462212578e-222,
            "202": 1.4282073820028826e-222,
            "203": 2.2231961916842214e-222,
            "204": 2.3869330201199612e-222,
            "205": 3.715706547447909e-222,
            "206": -4.1384659340507556e-222,
            "207": -4.1392762852038605e-222,
            "208": -4.243568941985146e-222,
            "209": -5.1793081857902327e-222,
            "210": -5.279041659859776e-222,
            "211": -5.4081593311040683e-222
          }
        },
        {
          "sx": 1,
          "sy": 1,
          "depth": 212,
          "w": {
            "0": 7.363109700767704e-223,
            "1": 6.1363615801455664e-223,
            "2": -2.981086691966727e-224,
            "3": 1.4900641601615803e-224,
            "4": 8.653207507839673e-222,
            "5": 6.54576468704266e-222,
            "6": 5.091472624859972e-222,
            "7": 4.32723275342395e-222,
            "8": -5.832366525729926e-224,
            "9": 2.8604554389814926e-224,
            "10": 1.8330900565797754e-224,
            "11": 3.6014135372878256e-226,
            "12": 9.82703060837507e-222,
            "13": 8.019376172584627e-222,
            "14": 3.078955402855694e-222,
            "15": 2.2281627747779783e-222,
            "16": -3.3809474777797697e-223,
            "17": 9.949828934966109e-224,
            "18": -1.0419372836532844e-224,
            "19": -4.641775551772394e-224,
            "20": 9.367605107029397e-222,
            "21": 7.008185482298641e-222,
            "22": 1.8305900380049435e-222,
            "23": 5.558908105549819e-223,
            "24": -3.869004743654383e-223,
            "25": -5.67737370678004e-225,
            "26": 4.2342106698385425e-224,
            "27": 2.253060152267369e-224,
            "28": 4.217492107954843e-222,
            "29": 3.581933400559463e-222,
            "30": 4.741243027816485e-223,
            "31": -3.10000526396567e-224,
            "32": -9.134712304124428e-223,
            "33": -4.816898911964412e-224,
            "34": -2.2987603309103535e-223,
            "35": -1.1106993456214795e-223,
            "36": 2.3463434685540755e-222,
            "37": 1.4044174076783677e-222,
            "38": 6.595343196851583e-223,
            "39": 6.717023107295138e-224,
            "40": -7.874075923962068e-223,
            "41": -4.0895303861045586e-224,
            "42": -1.414575823851992e-224,
            "43": 3.9016128284771837e-225,
            "44": 2.0852586012780543e-222,
            "45": 1.7909206768864697e-222,
            "46": 9.45002572792322e-223,
            "47": 5.26033885737314e-223,
            "48": -3.8641401128118276e-224,
            "49": -1.5910136382181614e-223,
            "50": -1.866895260526675e-224,
            "51": -2.3417167580916034e-224,
            "52": 8.152881167491672e-223,
            "53": 3.0392472007116776e-223,
            "54": 1.176341743443894e-223,
            "55": 3.8842073018529356e-224,
            "56": -5.31271886154506e-223,
            "57": -1.7762850852474524e-224,
            "58": 1.199749686097698e-224,
            "59": -1.8209367457963646e-224,
            "60": 9.309345811628155e-223,
            "61": 3.7966656101630376e-223,
            "62": -1.0460870131064714e-223,
            "63": 4.641000030251616e-224,
            "64": -1.5209723771885032e-223,
            "65": 3.3297020331709903e-224,
            "66": -9.371536295806698e-225,
            "67": -5.0264526862300346e-225,
            "68": -7.24643333180019e-224,
            "69": -9.559973528658728e-224,
            "70": -2.216032007336129e-224,
            "71": -6.569056905906058e-225,
            "72": 1.1450758097040734e-223,
            "73": -3.6548819787966126e-224,
            "74": 3.2441333163420647e-224,
            "75": -3.239443330571724e-224,
            "76": 3.3103473811123966e-225,
            "77": -7.625299783326315e-225,
            "78": 4.48979772637156e-226,
            "79": -1.4002770144453737e-224,
            "80": -3.4033926034269066e-223,
            "81": -1.2763437666851795e-224,
            "82": -5.1071422895629274e-225,
            "83": 4.208665827204468e-225,
            "84": 6.394807418940441e-223,
            "85": 5.2244938358334373e-225,
            "86": -3.869910584266147e-224,
            "87": -4.2528912615550335e-224,
            "88": -2.9400722120768917e-223,
            "89": 4.181272400676192e-223,
            "90": 9.569380956521524e-224,
            "91": -7.522389142888034e-225,
            "92": 1.1395374573678696e-223,
            "93": 4.998578715277033e-224,
            "94": 3.733190511209808e-224,
            "95": 8.850694923857031e-225,
            "96": -3.578095946477492e-223,
            "97": -6.023851219817497e-225,
            "98": 2.446219636480157e-224,
            "99": -2.6997643819047157e-224,
            "100": 1.3707421489281585e-222,
            "101": 8.1879690248439e-223,
            "102": 4.6355693122310124e-223,
            "103": 4.656668356547308e-223,
            "104": -2.4688611166978795e-224,
            "105": -6.406449314867404e-224,
            "106": -1.7930911221492083e-224,
            "107": -8.697895035351898e-225,
            "108": 1.7287461766991137e-223,
            "109": 4.566726092955801e-224,
            "110": 1.3846538494243577e-224,
            "111": 9.059420408064152e-225,
            "112": -2.8094277299157545e-223,
            "113": 3.9599943805350314e-224,
            "114": -6.175173741830428e-227,
            "115": 4.016222724338612e-224,
            "116": 1.9430151093119668e-223,
            "117": 7.259270378631366e-224,
            "118": -2.330394111041591e-224,
            "119": 9.137815175029485e-225,
            "120": -2.7718008690817504e-223,
            "121": 1.3653074038192969e-223,
            "122": 1.5310520302608638e-224,
            "123": 9.531454620183411e-225,
            "124": 7.790340323789799e-225,
            "125": -1.0384687725948386e-224,
            "126": 1.9954230749820808e-224,
            "127": -1.620850259085134e-224,
            "128": 7.340158386525795e-223,
            "129": 7.337320667537754e-223,
            "130": 3.4697111893900056e-223,
            "131": 1.1941169409745355e-223,
            "132": -2.3571214156744208e-223,
            "133": -5.333110533805695e-224,
            "134": -5.781347787138533e-225,
            "135": -2.4940198939122383e-224,
            "136": 2.0490716954125277e-223,
            "137": 2.7290677392229265e-223,
            "138": 2.0926017330574133e-223,
            "139": -2.4617871875876524e-224,
            "140": 2.9508541368181836e-223,
            "141": 4.4800196546123576e-225,
            "142": -2.0340309019368698e-224,
            "143": -9.305860179169904e-225,
            "144": 4.815526215398716e-223,
            "145": 9.132732314022549e-223,
            "146": 5.664397941941693e-223,
            "147": 5.1264567424079284e-223,
            "148": 1.3441488932090916e-222,
            "149": -5.41362911831287e-224,
            "150": -1.4021478382100494e-224,
            "151": 1.3379911060418232e-224,
            "152": -2.3968582929303022e-222,
            "153": -1.361715008473156e-222,
            "154": 2.7438023492888424e-225,
            "155": -3.3308735961890935e-224,
            "156": 9.85522767026946e-223,
            "157": 1.0384094548201958e-223,
            "158": 5.771965572550859e-224,
            "159": -7.935824972325474e-225,
            "160": -4.430110442632835e-222,
            "161": -3.4906589877450397e-222,
            "162": 4.761773017296069e-223,
            "163": 1.4617869033708812e-223,
            "164": 1.2462269352686285e-223,
            "165": -8.164547222587832e-224,
            "166": -6.333749764419305e-224,
            "167": -9.313391762735032e-225,
            "168": -7.996661739293542e-222,
            "169": -6.589419917143889e-222,
            "170": -1.6142285718740775e-222,
            "171": -5.5909073605897784e-223,
            "172": 5.964390603278954e-223,
            "173": 1.4888710071759938e-223,
            "174": -2.1952899714353267e-224,
            "175": -9.745594375871679e-224,
            "176": -7.548844902243856e-222,
            "177": -5.765134040267417e-222,
            "178": -2.4258831716830186e-222,
            "179": -4.811713487153518e-223,
            "180": -5.901677747261038e-224,
            "181": 3.22304503004902e-224,
            "182": 6.81112990503166e-225,
            "183": 9.55197412811096e-225,
            "184": -8.211090997829771e-222,
            "185": -6.563082604987551e-222,
            "186": -3.7948439843611645e-222,
            "187": -3.2895220589512704e-222,
            "188": 9.516460575563172e-223,
            "189": 9.863575091962117e-223,
            "190": 2.783720908429965e-223,
            "191": -4.530464470553831e-224,
            "192": 1.0543798412809513e-223,
            "193": -1.1399964344330232e-223,
            "194": -3.319144996869832e-224,
            "195": 5.073414978918879e-225,
            "196": 5.238595062288941e-223,
            "197": 5.949144605895052e-224,
            "198": 6.6773207786171594e-226,
            "199": -5.563240990438442e-225,
            "200": 1.2405295703851019e-222,
            "201": 1.497210002227942e-222,
            "202": 1.5257416921032365e-222,
            "203": 2.350232414493289e-222,
            "204": 2.5232860769567176e-222,
            "205": 3.954564298648478e-222,
            "206": -4.293415756329565e-222,
            "207": -4.301048628501356e-222,
            "208": -4.3797340523585895e-222,
            "209": -5.372249025871505e-222,
            "210": -5.4812403792771154e-222,
            "211": -5.616981170459196e-222
          }
        },
        {
          "sx": 1,
          "sy": 1,
          "depth": 212,
          "w": {
            "0": 4.463122294754559e-223,
            "1": 3.344273503004885e-223,
            "2": -6.873661784818237e-225,
            "3": -3.114436239841346e-225,
            "4": 5.762836567985913e-222,
            "5": 4.359092858940493e-222,
            "6": 3.4389320219403937e-222,
            "7": 2.8924309001014023e-222,
            "8": -5.251341192173842e-224,
            "9": 4.4501255993899256e-225,
            "10": -2.1302325706246995e-224,
            "11": 2.730751980716482e-224,
            "12": 6.459951122222261e-222,
            "13": 5.3026258557308256e-222,
            "14": 2.047836204312616e-222,
            "15": 1.4862299924279618e-222,
            "16": -1.999936558219056e-223,
            "17": 7.3893063121083065e-224,
            "18": -2.583062549030834e-225,
            "19": -2.3597221528880405e-224,
            "20": 6.218836872453181e-222,
            "21": 4.610723365797992e-222,
            "22": 1.2276675850892997e-222,
            "23": 3.3328550826080724e-223,
            "24": -2.7305538303584506e-223,
            "25": -2.8047713469055583e-224,
            "26": 1.9127508914784497e-224,
            "27": 6.226826931675558e-225,
            "28": 2.7679266412023897e-222,
            "29": 2.3831108155926664e-222,
            "30": 3.331316344454351e-223,
            "31": 1.5761579332076008e-224,
            "32": -6.341686470793296e-223,
            "33": -5.216057714268e-224,
            "34": -1.5078903067779822e-223,
            "35": -8.515259577279757e-224,
            "36": 1.565063377264887e-222,
            "37": 9.420357645426837e-223,
            "38": 4.661841588931191e-223,
            "39": 7.164958949026012e-224,
            "40": -5.43913527875774e-223,
            "41": -3.2787399542294763e-224,
            "42": 5.2138510897391565e-225,
            "43": -8.701744841904742e-225,
            "44": 1.3357660839384813e-222,
            "45": 1.1664588031775103e-222,
            "46": 5.9635397612227335e-223,
            "47": 2.7615278322319e-223,
            "48": -4.444825039270864e-224,
            "49": -9.226058142735053e-224,
            "50": 2.0988800552925146e-224,
            "51": 2.8423858290199416e-225,
            "52": 5.304853126740557e-223,
            "53": 2.2595482901302484e-223,
            "54": 7.241863513839954e-224,
            "55": 2.7110610529590915e-224,
            "56": -3.371843495960114e-223,
            "57": -2.353694442261246e-224,
            "58": 1.0939084296843473e-224,
            "59": 2.525525223306988e-224,
            "60": 6.104496985173834e-223,
            "61": 1.9993003322214812e-223,
            "62": -4.5018536950778205e-224,
            "63": 2.917250147136825e-224,
            "64": -1.6236699746478886e-223,
            "65": 1.2175736845687572e-224,
            "66": 8.821195355786756e-225,
            "67": -3.527312685487432e-224,
            "68": -2.0683770565791994e-224,
            "69": -3.1156386156557474e-224,
            "70": 3.2250307729866276e-224,
            "71": 4.1878459280211435e-224,
            "72": 1.0150681163616025e-223,
            "73": -1.5478693736209818e-224,
            "74": 2.75520782291989e-224,
            "75": -2.6777487926735823e-224,
            "76": -3.2231978519963047e-224,
            "77": -4.641917607145095e-225,
            "78": 1.4263156468050304e-224,
            "79": 2.0973562765885078e-224,
            "80": -2.2611483929931224e-223,
            "81": 2.2268865089088592e-224,
            "82": -1.2708062573927265e-224,
            "83": -6.097303446608052e-225,
            "84": 3.88126325394885e-223,
            "85": -3.407682591378537e-224,
            "86": -2.501306697705393e-224,
            "87": -3.346719437634444e-224,
            "88": -2.0915689873108157e-223,
            "89": 2.3654924165191085e-223,
            "90": 3.209305793527216e-225,
            "91": -5.340386117913338e-224,
            "92": 4.080054040302227e-224,
            "93": 3.8513761539854323e-224,
            "94": 1.7173922439759686e-224,
            "95": -1.9166821210560896e-224,
            "96": -2.3983792655909517e-223,
            "97": 1.790872837880205e-224,
            "98": -2.075566443567736e-224,
            "99": -1.0798717078087046e-225,
            "100": 8.866843783066865e-223,
            "101": 5.0643763519773795e-223,
            "102": 2.7828767135801937e-223,
            "103": 2.757044194977238e-223,
            "104": -2.342009248661199e-224,
            "105": -3.5635191993553024e-224,
            "106": -1.7300642921719385e-224,
            "107": 1.6278554223307845e-224,
            "108": 1.2758487258950747e-223,
            "109": 3.000522460508876e-224,
            "110": -1.3001479052253425e-224,
            "111": 6.384397848885367e-225,
            "112": -2.0583716996740066e-223,
            "113": -4.2400407735326624e-224,
            "114": 2.0540159776525267e-224,
            "115": 3.2326046568120205e-224,
            "116": 1.4307789297104086e-223,
            "117": 6.876891132751991e-224,
            "118": 5.511783539810455e-225,
            "119": 1.1395489422915387e-224,
            "120": -2.1894038720435083e-223,
            "121": 2.744105113256495e-224,
            "122": -1.2175895844171769e-225,
            "123": -4.0424644420076813e-224,
            "124": -3.7327616619259946e-224,
            "125": 2.5071025541487754e-224,
            "126": 1.166339529118335e-224,
            "127": -1.3355023652453482e-224,
            "128": 4.41493378941842e-223,
            "129": 4.7747604995961985e-223,
            "130": 2.1036265628245378e-223,
            "131": 4.738207301453591e-224,
            "132": -1.8748473225852494e-223,
            "133": 4.557513421647692e-225,
            "134": -2.435413460255709e-224,
            "135": -3.066027918284327e-224,
            "136": 1.1254729591740761e-223,
            "137": 1.4842262332565028e-223,
            "138": 1.1924680149753648e-223,
            "139": 1.566626518125343e-224,
            "140": 1.9108881927489833e-223,
            "141": -1.7171623903374755e-224,
            "142": -2.5239858617937464e-224,
            "143": 6.663974087252823e-225,
            "144": 2.7211134608971757e-223,
            "145": 5.356497590404253e-223,
            "146": 3.393808782480153e-223,
            "147": 3.614187193747719e-223,
            "148": 8.554570017328779e-223,
            "149": -4.466504880780395e-224,
            "150": 5.358893092228923e-227,
            "151": -1.2727997995490296e-225,
            "152": -1.7023220414101202e-222,
            "153": -9.297355008563477e-223,
            "154": 2.5005928553972986e-224,
            "155": 2.0500606294462284e-224,
            "156": 6.553065216865215e-223,
            "157": 3.902120897499479e-224,
            "158": 4.64923604555204e-224,
            "159": 1.8185750099732747e-224,
            "160": -3.075648374992408e-222,
            "161": -2.5037457274421733e-222,
            "162": 2.9177507749382928e-223,
            "163": 8.809282314595598e-224,
            "164": 8.503463059691717e-224,
            "165": -2.45528060079075e-224,
            "166": -4.004964748076243e-224,
            "167": 1.237426170583127e-224,
            "168": -5.421405481669249e-222,
            "169": -4.5051360441512235e-222,
            "170": -1.068599409679248e-222,
            "171": -3.7150311097936355e-223,
            "172": 4.126638386847629e-223,
            "173": 5.736420872832793e-224,
            "174": -3.7852286830908716e-224,
            "175": -8.275431285316143e-224,
            "176": -5.119108436896063e-222,
            "177": -3.933969339962956e-222,
            "178": -1.6443452710585636e-222,
            "179": -3.4461707359395137e-223,
            "180": -1.944255103535355e-224,
            "181": 2.338724887782794e-224,
            "182": -4.457128843404768e-224,
            "183": -1.5693822942559788e-224,
            "184": -5.623772639561492e-222,
            "185": -4.50814636184969e-222,
            "186": -2.6217768537463675e-222,
            "187": -2.253728761249058e-222,
            "188": 6.0939968698193215e-223,
            "189": 6.284378757553525e-223,
            "190": 1.901727653212732e-223,
            "191": -4.430784450782396e-225,
            "192": 6.884172312417227e-224,
            "193": -6.728299357225192e-224,
            "194": -3.1747129713236654e-225,
            "195": 8.504119514348734e-225,
            "196": 3.5204526941529345e-223,
            "197": -5.053023746695469e-226,
            "198": -2.893741159373196e-224,
            "199": 4.224315318447735e-224,
            "200": 7.556543596646422e-223,
            "201": 9.870282240438051e-223,
            "202": 9.454810421894893e-223,
            "203": 1.5485631539185272e-222,
            "204": 1.647347991407913e-222,
            "205": 2.5903015336903545e-222,
            "206": -3.025398476118924e-222,
            "207": -3.019522454409147e-222,
            "208": -3.037141030974719e-222,
            "209": -3.702640640994682e-222,
            "210": -3.724115499423316e-222,
            "211": -3.846053134535528e-222
          }
        },
        {
          "sx": 1,
          "sy": 1,
          "depth": 212,
          "w": {
            "0": -8.742933382467208e-223,
            "1": -7.802409572757933e-223,
            "2": 6.4265545826135585e-224,
            "3": 3.401087395054676e-224,
            "4": -9.05238872936467e-222,
            "5": -6.7768921375757e-222,
            "6": -5.360945733305755e-222,
            "7": -4.6888049629999727e-222,
            "8": 4.290455202579137e-224,
            "9": -1.783239560391058e-224,
            "10": -3.6090102196244482e-224,
            "11": 4.1605194832866116e-225,
            "12": -1.0244351299061282e-221,
            "13": -8.367991809700535e-222,
            "14": -2.9833181754258924e-222,
            "15": -2.1165255974207764e-222,
            "16": 2.8057040004627347e-223,
            "17": -1.3415611300503456e-223,
            "18": -1.9159678018953546e-224,
            "19": 8.85530552891922e-225,
            "20": -9.912942975357867e-222,
            "21": -7.252843823147638e-222,
            "22": -2.045719405377628e-222,
            "23": -6.6916319975235426e-223,
            "24": 3.1446150720651548e-223,
            "25": -7.910797453134328e-224,
            "26": -6.937714381074737e-224,
            "27": 2.5607992279378585e-225,
            "28": -4.3467141585304785e-222,
            "29": -3.6283751867924333e-222,
            "30": -5.326971823339207e-223,
            "31": -1.0833618152003442e-224,
            "32": 9.874491273285242e-223,
            "33": 2.697678252329307e-225,
            "34": 2.3702572331751916e-223,
            "35": 9.9376026668273e-224,
            "36": -2.308384333388633e-222,
            "37": -1.3611464958799497e-222,
            "38": -8.077441165559609e-223,
            "39": -9.917746705510295e-224,
            "40": 1.1247054337996605e-222,
            "41": -1.0150464992980023e-224,
            "42": 1.5576395232175846e-224,
            "43": -4.657067134251195e-225,
            "44": -2.4282434868523357e-222,
            "45": -2.0856934934568187e-222,
            "46": -1.205088998204364e-222,
            "47": -7.493355039259603e-223,
            "48": 3.577894492055192e-224,
            "49": 1.7383916482895298e-223,
            "50": 7.171505193451722e-225,
            "51": -1.795937455272365e-224,
            "52": -8.875229241404912e-223,
            "53": -4.854787202466778e-223,
            "54": -1.3949854955457382e-223,
            "55": -4.635429149426457e-224,
            "56": 5.417598725538802e-223,
            "57": 4.757156702961455e-224,
            "58": 3.9379856784657227e-225,
            "59": 1.1864595376285087e-224,
            "60": -1.3269211579632095e-222,
            "61": -5.75227136945428e-223,
            "62": -2.0148127298850565e-224,
            "63": -7.21252858936018e-224,
            "64": 3.869604927738502e-223,
            "65": -6.254140735112128e-224,
            "66": -3.5603494357009973e-224,
            "67": 2.0575104919731158e-224,
            "68": 2.5499726402892156e-224,
            "69": 1.078620106221078e-223,
            "70": -7.111053987832218e-225,
            "71": -3.521609635106379e-224,
            "72": -1.0823127591291109e-223,
            "73": 5.272619968637633e-224,
            "74": 2.3168553924746655e-224,
            "75": 2.0601527846538664e-224,
            "76": -2.2505883432448833e-224,
            "77": 5.777208469939204e-224,
            "78": 2.0003019087766207e-224,
            "79": -3.364867523270349e-224,
            "80": 4.029628331896226e-223,
            "81": -1.648797986148804e-224,
            "82": -2.8252826362668916e-224,
            "83": 1.4842491551230644e-224,
            "84": -5.5079171621063654e-223,
            "85": 8.882199585804642e-225,
            "86": 4.1990798352431123e-224,
            "87": 4.294619278429139e-225,
            "88": 6.146159013700607e-223,
            "89": -6.125091399279942e-223,
            "90": -1.3365168521831405e-223,
            "91": -6.367636059676167e-224,
            "92": -1.270741653089177e-223,
            "93": -8.325779429882261e-224,
            "94": -2.607552133101985e-224,
            "95": -3.009492216361413e-225,
            "96": 4.611438096524581e-223,
            "97": -2.2541721419880436e-224,
            "98": -5.1560741470227265e-225,
            "99": -2.465347683076885e-224,
            "100": -1.7303346999068317e-222,
            "101": -1.184782785418052e-222,
            "102": -6.5681749080971385e-223,
            "103": -5.837069398668277e-223,
            "104": 1.963706891249928e-223,
            "105": 3.1760816582523347e-224,
            "106": -7.652715591851628e-225,
            "107": 3.107991226553612e-224,
            "108": -2.5093632967953954e-223,
            "109": -3.2973042210888986e-224,
            "110": 1.6263328006298446e-224,
            "111": -1.4741288455212319e-224,
            "112": 3.135361474996371e-223,
            "113": -3.63024983550194e-224,
            "114": -1.9819111516129506e-224,
            "115": -4.5997680600613725e-225,
            "116": -6.831237155540139e-224,
            "117": -3.6991395346044833e-224,
            "118": 2.1882441558968563e-224,
            "119": 3.016980141426635e-224,
            "120": 2.925201395068886e-223,
            "121": -1.4166254889489598e-223,
            "122": 2.940031041093061e-224,
            "123": 1.2665518855807544e-224,
            "124": -2.734759324112943e-224,
            "125": 1.475365414441609e-224,
            "126": 1.9080591660565249e-224,
            "127": -8.526461705748047e-226,
            "128": -1.0000391997448883e-222,
            "129": -1.0819109580368086e-222,
            "130": -5.0442969856600876e-223,
            "131": -1.2153478939290695e-223,
            "132": 2.54149611421395e-223,
            "133": 3.088982983034737e-224,
            "134": -9.221137346893044e-225,
            "135": 1.3127485073948984e-224,
            "136": -3.420636718737452e-223,
            "137": -4.1879811632880274e-223,
            "138": -2.3243461508775098e-223,
            "139": 2.5138962595177985e-224,
            "140": -2.2640609634173384e-223,
            "141": 5.214304699028741e-224,
            "142": -2.625744012771277e-224,
            "143": -3.4611104786961624e-224,
            "144": -1.9621570680991826e-223,
            "145": -1.2535942908878553e-222,
            "146": -8.252423058971405e-223,
            "147": -7.672379828210934e-223,
            "148": -1.2478601517421894e-222,
            "149": 1.1876793352686126e-223,
            "150": 3.081425945943972e-224,
            "151": -5.768664501395561e-225,
            "152": 2.4984359215762782e-222,
            "153": 1.3421192929668004e-222,
            "154": -7.335678836378965e-225,
            "155": 2.6166049994907643e-224,
            "156": -7.091720641279592e-223,
            "157": -9.032262611683075e-224,
            "158": -8.364351290453259e-224,
            "159": -5.630378904641564e-224,
            "160": 5.895532289486938e-222,
            "161": 5.0276141447453137e-222,
            "162": -4.340132741895485e-223,
            "163": -1.4262169599260222e-223,
            "164": -7.861317388970046e-224,
            "165": 1.1051176518603986e-223,
            "166": 5.029314369491167e-224,
            "167": 6.6108057863457675e-224,
            "168": 9.48878145634724e-222,
            "169": 8.05476385945576e-222,
            "170": 1.651209793695978e-222,
            "171": 5.939311564130528e-223,
            "172": -7.041951317085069e-223,
            "173": -1.5381076269158394e-223,
            "174": 1.303709186057229e-224,
            "175": 1.1787278918320246e-223,
            "176": 9.021009884506136e-222,
            "177": 7.268400538555594e-222,
            "178": 3.91586062891212e-222,
            "179": 1.5603422305590906e-222,
            "180": 6.382443729598788e-224,
            "181": -3.085431312139486e-224,
            "182": 3.1729524053840854e-225,
            "183": -1.7108895502837934e-224,
            "184": 1.011831524847981e-221,
            "185": 8.253052311439406e-222,
            "186": 5.37208507274836e-222,
            "187": 4.657480841694218e-222,
            "188": -1.2472706310269995e-222,
            "189": -1.2729661112319918e-222,
            "190": -3.4714875656917354e-223,
            "191": 3.200806014100198e-224,
            "192": -1.9104472361099076e-223,
            "193": 1.1322666036046958e-223,
            "194": 2.226482251838988e-224,
            "195": -1.5652163545939388e-224,
            "196": -5.3365788202910366e-223,
            "197": -3.210396180813327e-224,
            "198": -7.574881158091393e-225,
            "199": 5.357458153310989e-224,
            "200": -1.385491877024174e-222,
            "201": -1.6597755075153465e-222,
            "202": -1.6487689128885684e-222,
            "203": -2.4625913946046173e-222,
            "204": -2.7288537611922638e-222,
            "205": -4.0461396991772256e-222,
            "206": 5.792431484563048e-222,
            "207": 5.742152336563812e-222,
            "208": 5.78845783736586e-222,
            "209": 6.976298771868502e-222,
            "210": 7.019035294516408e-222,
            "211": 7.175004470093372e-222
          }
        },
        {
          "sx": 1,
          "sy": 1,
          "depth": 212,
          "w": {
            "0": -6.4090417861340485e-223,
            "1": -5.4918349688096456e-223,
            "2": 7.270926209713837e-224,
            "3": -7.476613562063887e-225,
            "4": -6.487991996902568e-222,
            "5": -4.918542558324226e-222,
            "6": -3.91164782545379e-222,
            "7": -3.396168437325804e-222,
            "8": 4.809957712118967e-224,
            "9": -8.018619202827627e-225,
            "10": 2.53753428473467e-224,
            "11": -4.874982561078258e-225,
            "12": -7.34942555686586e-222,
            "13": -6.043180661078814e-222,
            "14": -2.1229877734348532e-222,
            "15": -1.5245313251134763e-222,
            "16": 2.0009478738424845e-223,
            "17": -8.69062422225818e-224,
            "18": -6.909209276884196e-225,
            "19": 1.3471639124149364e-224,
            "20": -7.157582731933464e-222,
            "21": -5.171505657717155e-222,
            "22": -1.4016087268826848e-222,
            "23": -4.3186034200604385e-223,
            "24": 1.9804807495732136e-223,
            "25": -6.914738992237675e-224,
            "26": -9.626117627755314e-224,
            "27": -1.7722287226017382e-224,
            "28": -3.0761194255846414e-222,
            "29": -2.605025527475433e-222,
            "30": -3.303609861865964e-223,
            "31": -1.9576064202544084e-224,
            "32": 6.309045128090602e-223,
            "33": -1.0191200908622545e-224,
            "34": 1.5059387472619854e-223,
            "35": 8.378100798853463e-224,
            "36": -1.7090926212249765e-222,
            "37": -1.0241791657664874e-222,
            "38": -6.10578535704073e-223,
            "39": -7.17715154461928e-224,
            "40": 7.773178128349948e-223,
            "41": -1.1614924202000854e-224,
            "42": -1.3394985724745716e-224,
            "43": 1.0958827953617222e-224,
            "44": -1.76936615430149e-222,
            "45": -1.5774296812257613e-222,
            "46": -8.883121655282356e-223,
            "47": -5.360550138136557e-223,
            "48": 2.0327419675695613e-224,
            "49": 1.1745065711009118e-223,
            "50": -1.3302586753400025e-224,
            "51": -4.289024173209032e-225,
            "52": -5.97383652819056e-223,
            "53": -3.8357428496176954e-223,
            "54": -9.232854347862527e-224,
            "55": -4.560666862570417e-224,
            "56": 3.926011161919654e-223,
            "57": 3.6209853974496607e-224,
            "58": -6.546967169948263e-225,
            "59": 1.0050386690708342e-225,
            "60": -9.497107710553787e-223,
            "61": -4.740808435969569e-223,
            "62": -8.138152475047132e-225,
            "63": -6.659498656072089e-224,
            "64": 2.5583464594056405e-223,
            "65": -2.6604126246636936e-224,
            "66": -1.376876948899494e-224,
            "67": 3.4562496035240036e-226,
            "68": -4.07281228062924e-225,
            "69": 4.129720588653929e-224,
            "70": 2.5176182001626878e-225,
            "71": -3.8771373849877366e-225,
            "72": -7.225199809474247e-224,
            "73": 4.1684176866462297e-224,
            "74": -1.1611564589257315e-224,
            "75": -2.188756502620679e-224,
            "76": 7.230340758068488e-225,
            "77": 5.600198808111051e-224,
            "78": 7.125811228999377e-225,
            "79": 2.461118581692941e-224,
            "80": 2.800750346687967e-223,
            "81": -6.928321832602678e-225,
            "82": -9.193986851361034e-226,
            "83": -2.4092149259367053e-224,
            "84": -4.603106161711495e-223,
            "85": -6.165586844424054e-225,
            "86": -9.302194491898138e-225,
            "87": 3.221735918262557e-224,
            "88": 4.404740021092106e-223,
            "89": -4.541376559636545e-223,
            "90": -1.4354163858791707e-223,
            "91": -2.8211404800602067e-224,
            "92": -8.241778951950817e-224,
            "93": -4.8365054334442195e-224,
            "94": -3.0360244272580744e-224,
            "95": -2.2106827153368824e-224,
            "96": 3.0340114547359767e-223,
            "97": -2.6916201403084996e-225,
            "98": -3.956422274593143e-224,
            "99": 1.836930353958757e-224,
            "100": -1.2305395935874764e-222,
            "101": -8.613068916802577e-223,
            "102": -4.467370413486863e-223,
            "103": -4.222229988704749e-223,
            "104": 1.2251964895509162e-223,
            "105": 2.9703022647071853e-224,
            "106": -8.128654083306428e-225,
            "107": -9.659286298338149e-225,
            "108": -1.6405781998833274e-223,
            "109": -1.3447279340858495e-224,
            "110": 1.5108480542862022e-224,
            "111": -9.853137259186648e-225,
            "112": 2.406455593260394e-223,
            "113": -1.222999854379513e-224,
            "114": 9.523561401882454e-225,
            "115": -1.4596845467159885e-224,
            "116": -1.2371005313007433e-223,
            "117": -3.806448124866965e-224,
            "118": 1.7035968405793113e-224,
            "119": 1.505444718347703e-224,
            "120": 2.35122325009448e-223,
            "121": -8.915856518882513e-224,
            "122": -1.2086755976648808e-224,
            "123": -8.944284635370336e-225,
            "124": -1.876387878771243e-224,
            "125": 1.8144725433578064e-224,
            "126": -8.640048438840226e-225,
            "127": 3.720229609370863e-224,
            "128": -7.29726127893783e-223,
            "129": -7.791376288839128e-223,
            "130": -3.2166045161593417e-223,
            "131": -1.1733734777094857e-223,
            "132": 1.4010689823100506e-223,
            "133": 4.98366276829338e-224,
            "134": -9.233503935653136e-225,
            "135": 1.0886882312253176e-224,
            "136": -2.2172988612116527e-223,
            "137": -2.5783743667864624e-223,
            "138": -1.5393362117301736e-223,
            "139": 1.2734076141849946e-224,
            "140": -1.7943824461957854e-223,
            "141": 8.868806693443377e-225,
            "142": -1.699060229351396e-225,
            "143": -2.759891569291798e-224,
            "144": -1.4190879800352197e-223,
            "145": -8.990783133834535e-223,
            "146": -5.844347432161152e-223,
            "147": -5.5692010538616195e-223,
            "148": -9.2113138248689e-223,
            "149": 7.411466053533255e-224,
            "150": 1.7631011599244364e-225,
            "151": 6.726858564904326e-225,
            "152": 1.802497829916152e-222,
            "153": 9.823774348068598e-223,
            "154": -3.569661976830919e-224,
            "155": -1.525007352751173e-224,
            "156": -4.7032672492259076e-223,
            "157": -4.433111484338433e-224,
            "158": -7.213449088446239e-224,
            "159": 2.996875628573857e-224,
            "160": 4.1469784892364367e-222,
            "161": 3.553128882337519e-222,
            "162": -3.046905941849208e-223,
            "163": -8.548159174747569e-224,
            "164": -5.607311536095677e-224,
            "165": 6.9591183493705395e-224,
            "166": 6.866672798005716e-224,
            "167": 2.392001611114866e-224,
            "168": 6.75776315207831e-222,
            "169": 5.626572761504649e-222,
            "170": 1.169185130136387e-222,
            "171": 4.130261977231726e-223,
            "172": -5.1657594779433876e-223,
            "173": -1.3207714785676115e-223,
            "174": 1.9698869032680353e-224,
            "175": 6.403356742315513e-224,
            "176": 6.295776135488609e-222,
            "177": 5.0796222264034086e-222,
            "178": 2.735848536801274e-222,
            "179": 1.0971456098224823e-222,
            "180": 7.380349920714621e-224,
            "181": -3.8538757438422738e-224,
            "182": 1.2683905182740005e-224,
            "183": 4.0480727297566446e-224,
            "184": 7.137517802085777e-222,
            "185": 5.829156657554873e-222,
            "186": 3.766464534365323e-222,
            "187": 3.293722148841897e-222,
            "188": -9.065423680772868e-223,
            "189": -9.02344914956889e-223,
            "190": -2.4942811284119667e-223,
            "191": 1.78819855375419e-224,
            "192": -1.404163685759221e-223,
            "193": 8.361767071736321e-224,
            "194": 4.4784967626294717e-225,
            "195": 3.955832070461306e-224,
            "196": -3.9888156459767145e-223,
            "197": -1.9060673508925796e-224,
            "198": 1.9866343746147597e-224,
            "199": 2.1555664911410725e-224,
            "200": -1.0972341720298355e-222,
            "201": -1.3284141853572813e-222,
            "202": -1.334085346981388e-222,
            "203": -1.8990884177445363e-222,
            "204": -2.018114286517208e-222,
            "205": -3.006364749513146e-222,
            "206": 3.9824867494243127e-222,
            "207": 3.9673534286850867e-222,
            "208": 4.043675574690592e-222,
            "209": 4.829183126623274e-222,
            "210": 4.830874652940588e-222,
            "211": 4.9793051179102876e-222
          }
        },
        {
          "sx": 1,
          "sy": 1,
          "depth": 212,
          "w": {
            "0": 7.045614795237805e-223,
            "1": 5.940924047402534e-223,
            "2": -2.001668056941845e-224,
            "3": -7.856791331725257e-225,
            "4": 8.4159849362646e-222,
            "5": 6.38314787947908e-222,
            "6": 4.984810403001348e-222,
            "7": 4.353603865239964e-222,
            "8": -3.841089958419088e-224,
            "9": -9.466273960510814e-226,
            "10": 3.9031913702675687e-224,
            "11": 2.859235890879884e-224,
            "12": 9.574352397639742e-222,
            "13": 7.796190591403527e-222,
            "14": 2.980794917339718e-222,
            "15": 2.1588385559263793e-222,
            "16": -2.918938982704884e-223,
            "17": 1.0555425014793167e-223,
            "18": 1.0224605246435756e-225,
            "19": -5.1847632528099765e-225,
            "20": 9.220520430246942e-222,
            "21": 6.873842740077613e-222,
            "22": 1.7976953052477985e-222,
            "23": 5.4771822429470014e-223,
            "24": -3.629150255779168e-223,
            "25": 4.954787804269406e-225,
            "26": 9.483123022119826e-224,
            "27": 7.128819556897133e-225,
            "28": 4.082921451069831e-222,
            "29": 3.513961405135474e-222,
            "30": 4.5874192347382425e-223,
            "31": -4.435426121240979e-224,
            "32": -1.0777603091817291e-222,
            "33": -8.139163939694989e-224,
            "34": -2.077162927887233e-223,
            "35": -1.4626004422819569e-223,
            "36": 2.295927152351602e-222,
            "37": 1.3855913991665882e-222,
            "38": 6.825385447855041e-223,
            "39": 6.380433213410404e-224,
            "40": -6.019347567974204e-223,
            "41": 1.883783626827336e-224,
            "42": -1.938208378127162e-224,
            "43": 9.718409064598579e-225,
            "44": 2.049385917707895e-222,
            "45": 1.7716475008148686e-222,
            "46": 9.074159562605414e-223,
            "47": 4.8807851795911225e-223,
            "48": -4.052084567330734e-224,
            "49": -1.5449943516542924e-223,
            "50": -1.7856349911588955e-225,
            "51": -2.4496901431962543e-224,
            "52": 8.002377204545789e-223,
            "53": 3.0822882957858566e-223,
            "54": 1.2788918878869833e-223,
            "55": 3.542139030603028e-224,
            "56": -5.270131362909056e-223,
            "57": -1.7929611509889993e-224,
            "58": -3.8734712892579645e-225,
            "59": -3.642793783714268e-224,
            "60": 9.384318092019565e-223,
            "61": 3.408624048550396e-223,
            "62": -1.1289415714138513e-223,
            "63": 1.6517940628960644e-224,
            "64": -3.616506642061368e-223,
            "65": 5.275124801490837e-224,
            "66": 1.6569518802878518e-224,
            "67": 3.205909655516277e-224,
            "68": -7.888571113110782e-224,
            "69": -8.540157561688229e-224,
            "70": 1.3045763050927497e-225,
            "71": -6.095504721710423e-225,
            "72": 1.4184305691964316e-223,
            "73": -6.012795817414687e-224,
            "74": -4.2330101339054126e-225,
            "75": 7.093845002659483e-225,
            "76": 7.618213394489596e-226,
            "77": -2.5170998335791917e-224,
            "78": 1.673465849643206e-224,
            "79": -5.610576549269648e-224,
            "80": -3.3817215318197692e-223,
            "81": 7.47735778797804e-227,
            "82": -1.201443925676284e-224,
            "83": 2.5360511859327968e-225,
            "84": 5.94987423171524e-223,
            "85": -5.116079326707404e-225,
            "86": 4.0867211067778776e-225,
            "87": -3.476144757869177e-224,
            "88": -2.8238711424622533e-223,
            "89": 3.88788924257513e-223,
            "90": 6.933039314294439e-224,
            "91": -4.4112009410389195e-224,
            "92": 1.0492919577345833e-223,
            "93": 4.699027069530482e-224,
            "94": 4.499844162065646e-224,
            "95": 2.199829501955294e-224,
            "96": -5.06538249248025e-223,
            "97": 9.719639648471263e-225,
            "98": -4.921962301081287e-224,
            "99": -3.773347798867384e-225,
            "100": 1.3411999552159499e-222,
            "101": 8.632433995275754e-223,
            "102": 4.40219677971499e-223,
            "103": 4.439129228209637e-223,
            "104": 2.2185433953916882e-224,
            "105": -4.633069751155696e-224,
            "106": 7.741242453014428e-225,
            "107": 1.0020532583979306e-224,
            "108": 2.2013715309255495e-223,
            "109": -9.750525144811204e-226,
            "110": 6.919610128565023e-225,
            "111": 6.717430200559893e-225,
            "112": -2.3943292447088158e-223,
            "113": 2.693042697149256e-224,
            "114": -1.5612941253969193e-224,
            "115": 3.6200422033352663e-224,
            "116": 2.095010436832884e-223,
            "117": 3.5230743898437307e-224,
            "118": -2.1903768783482056e-225,
            "119": -2.2089011221998733e-225,
            "120": -3.018991036015393e-223,
            "121": 1.0235303264371169e-223,
            "122": 1.1282557862154602e-224,
            "123": 1.3871323294476648e-224,
            "124": -9.308868582050761e-226,
            "125": -2.015355655085898e-224,
            "126": 1.1032117645180655e-224,
            "127": -1.5877497313141147e-224,
            "128": 7.310187465840846e-223,
            "129": 7.317118960100795e-223,
            "130": 3.147300221195703e-223,
            "131": 1.2269157090645823e-223,
            "132": -2.1808553628373304e-223,
            "133": -5.748014154386475e-224,
            "134": -3.595045094163666e-224,
            "135": -2.1627078024218414e-224,
            "136": 2.0700907652914124e-223,
            "137": 2.5828611850573463e-223,
            "138": 1.8328438712384446e-223,
            "139": -1.3439829441066133e-224,
            "140": 2.702208505456206e-223,
            "141": -7.827779765792451e-226,
            "142": 8.173922684300105e-225,
            "143": -4.0662096080027315e-225,
            "144": 4.708580904731939e-223,
            "145": 8.889052382976986e-223,
            "146": 5.34560439532848e-223,
            "147": 5.147629056552235e-223,
            "148": 1.2764589379891729e-222,
            "149": -8.435539124787701e-224,
            "150": -3.5658881925782726e-224,
            "151": -1.3153580992678936e-224,
            "152": -2.3867265094949918e-222,
            "153": -1.2955143044161023e-222,
            "154": -1.074655907180586e-224,
            "155": -5.894314446235321e-224,
            "156": 9.981141878271478e-223,
            "157": 1.5382196290940887e-223,
            "158": 7.729710563431794e-224,
            "159": 2.230219531555769e-224,
            "160": -4.566592662081876e-222,
            "161": -3.7148778054395284e-222,
            "162": 4.519519510385182e-223,
            "163": 1.3462368833919492e-223,
            "164": 1.3591622704450085e-223,
            "165": -1.2970222391609236e-223,
            "166": -6.069455799090842e-224,
            "167": -3.620846344696054e-224,
            "168": -7.986620207116427e-222,
            "169": -6.611937232217376e-222,
            "170": -1.7357732055273673e-222,
            "171": -5.074401743956888e-223,
            "172": 5.8744757806464645e-223,
            "173": 1.3649381262947262e-223,
            "174": -7.253195136768498e-224,
            "175": -7.975638231930211e-224,
            "176": -7.61336583718949e-222,
            "177": -5.837358650216872e-222,
            "178": -2.52357477207911e-222,
            "179": -8.550124412296999e-223,
            "180": -4.2967164350217827e-224,
            "181": -1.9718855164600564e-224,
            "182": 5.0708280394584944e-225,
            "183": -4.330677872157207e-224,
            "184": -8.248437031128967e-222,
            "185": -6.623344722699212e-222,
            "186": -3.9187062137834296e-222,
            "187": -3.2117590167362787e-222,
            "188": 9.908247070695267e-223,
            "189": 9.602471111318706e-223,
            "190": 2.8987743263954744e-223,
            "191": 6.543999306150719e-225,
            "192": 1.4793347754388877e-223,
            "193": -9.36507036371238e-224,
            "194": 2.2444994685854457e-224,
            "195": 2.4839180099595037e-224,
            "196": 5.362708946660202e-223,
            "197": 1.2878501487687887e-224,
            "198": -1.2046935149351785e-224,
            "199": 3.078964054865293e-224,
            "200": 1.2156719627525493e-222,
            "201": 1.484804205198139e-222,
            "202": 1.4079130190969372e-222,
            "203": 2.3091121730203502e-222,
            "204": 2.4564411633462642e-222,
            "205": 3.879427760264478e-222,
            "206": -4.530158672446776e-222,
            "207": -4.495393910704184e-222,
            "208": -4.614380678059912e-222,
            "209": -5.476818572009892e-222,
            "210": -5.5797700217679e-222,
            "211": -5.681343093875435e-222
          }
        },
        {
          "sx": 1,
          "sy": 1,
          "depth": 212,
          "w": {
            "0": 2.7649188956543844e-223,
            "1": 2.0709844442494205e-223,
            "2": -7.643033193568518e-224,
            "3": 1.0992799939644407e-224,
            "4": 3.5756124285808965e-222,
            "5": 2.737916127779965e-222,
            "6": 2.1738149138899994e-222,
            "7": 1.828719678029337e-222,
            "8": -9.234922749655805e-225,
            "9": 1.7577669763161694e-224,
            "10": 2.709589341961459e-225,
            "11": 3.510089110002415e-225,
            "12": 4.04342890124267e-222,
            "13": 3.306872200149751e-222,
            "14": 1.2542923533653788e-222,
            "15": 8.885637710157465e-223,
            "16": -1.2813774578456233e-223,
            "17": 3.1703463844285473e-224,
            "18": -2.12499162330211e-224,
            "19": 3.5385562093713406e-224,
            "20": 3.9104815244938496e-222,
            "21": 2.873513930369782e-222,
            "22": 7.705971178646255e-223,
            "23": 2.0672375470517896e-223,
            "24": -2.061429683797464e-223,
            "25": -2.8433983127179876e-224,
            "26": 3.3562456911670503e-224,
            "27": 3.8267396548306225e-224,
            "28": 1.7373273401673555e-222,
            "29": 1.5133753883975478e-222,
            "30": 2.364920371698322e-223,
            "31": 2.1712690774334187e-225,
            "32": -5.640764758890834e-223,
            "33": -3.104178269278901e-224,
            "34": -1.4690012343659227e-223,
            "35": -4.2080651449763397e-224,
            "36": 9.9886652731834e-223,
            "37": 6.423677026002646e-223,
            "38": 3.2883895064465536e-223,
            "39": 1.9065331472099965e-224,
            "40": -3.529399534437506e-223,
            "41": -1.3187967074821018e-224,
            "42": -1.3133231093773944e-224,
            "43": -3.043931924714629e-224,
            "44": 8.764590130150402e-223,
            "45": 7.307952705540192e-223,
            "46": 3.2924206690371617e-223,
            "47": 2.0405796540803505e-223,
            "48": -8.009265262369714e-224,
            "49": -8.008164494387165e-224,
            "50": -7.237934169452355e-227,
            "51": 3.350899881959721e-224,
            "52": 3.406959512170915e-223,
            "53": 1.2047562244702306e-223,
            "54": 6.868834713879084e-224,
            "55": 2.642869935066278e-224,
            "56": -2.090704069091852e-223,
            "57": -2.8833815840145696e-224,
            "58": -2.439939002474859e-224,
            "59": 3.618234133465143e-224,
            "60": 3.7944714293474144e-223,
            "61": 1.4240772665331603e-223,
            "62": -9.68128583002711e-224,
            "63": 1.1011684477140442e-224,
            "64": -8.655064402936296e-224,
            "65": 1.1360604797831553e-224,
            "66": 3.679973863338712e-225,
            "67": -8.386289875695482e-225,
            "68": -4.191736247653777e-225,
            "69": -3.3693813484263545e-224,
            "70": -2.7954586640729086e-224,
            "71": -2.0685199039783442e-224,
            "72": 5.764832153401055e-224,
            "73": -5.047399646264889e-224,
            "74": -4.8895937581604505e-225,
            "75": -1.9645330949941864e-224,
            "76": -1.7536187745619182e-225,
            "77": 6.981730415843309e-225,
            "78": -3.5156014076166192e-224,
            "79": -2.1407133632168831e-224,
            "80": -1.4852613510393393e-223,
            "81": -6.020867037947315e-225,
            "82": -4.616977482658516e-224,
            "83": -2.39121619548414e-224,
            "84": 2.1858332598030513e-223,
            "85": 5.974603255801725e-225,
            "86": -1.4322488628209312e-224,
            "87": 5.52522764577265e-227,
            "88": -3.97638897838448e-223,
            "89": 1.4316828993852526e-223,
            "90": 5.0355183459967205e-225,
            "91": -2.647426955446066e-224,
            "92": 5.20464074510552e-224,
            "93": -2.2803138045026397e-225,
            "94": -3.0616448396816164e-224,
            "95": 2.9480041334995436e-224,
            "96": -2.5710058275125847e-223,
            "97": -3.7912019838477917e-224,
            "98": -3.6603358181798754e-224,
            "99": -1.1456869988652645e-224,
            "100": 5.802719921929334e-223,
            "101": 3.3816048224610765e-223,
            "102": 1.9703090000365432e-223,
            "103": 1.5502828602146912e-223,
            "104": -1.2024040190319206e-223,
            "105": -1.3865842759528863e-224,
            "106": -3.730265947144071e-224,
            "107": -2.768406998455749e-224,
            "108": 1.3730329530321487e-223,
            "109": 3.642919364434987e-225,
            "110": 2.570648022159018e-224,
            "111": -1.6958877000157097e-224,
            "112": -1.2494303747127878e-223,
            "113": 1.401555581436817e-224,
            "114": -3.920043986826852e-225,
            "115": -2.1227708720146965e-224,
            "116": 8.958192532316184e-224,
            "117": 5.466061716313376e-224,
            "118": -1.0427522361928235e-224,
            "119": -2.402339303944246e-224,
            "120": -1.4083655724811451e-223,
            "121": 4.37857544553286e-224,
            "122": 1.2961904317833127e-224,
            "123": 1.975005658846418e-224,
            "124": -1.7707463547916932e-224,
            "125": 1.3472326867477568e-224,
            "126": -2.5149400502529753e-224,
            "127": -1.9498660971222873e-224,
            "128": 2.7367948199183915e-223,
            "129": 3.3374456116514167e-223,
            "130": 1.5337081889588217e-223,
            "131": 6.978296223024984e-224,
            "132": -8.202737155001155e-224,
            "133": -4.645398865239947e-225,
            "134": 6.191181623110231e-225,
            "135": 1.1412895948221373e-224,
            "136": 9.49698993066581e-224,
            "137": 1.1974868629427506e-223,
            "138": 1.383262144936383e-223,
            "139": 3.747898207101085e-224,
            "140": 1.1977699283390045e-223,
            "141": 2.254249745914584e-224,
            "142": -5.2611135284586917e-225,
            "143": 1.0242803183867728e-224,
            "144": 3.8990882352800903e-224,
            "145": 3.39200068950735e-223,
            "146": 2.2132822986184276e-223,
            "147": 2.241683913171251e-223,
            "148": 5.5618469050250545e-223,
            "149": -5.10246635109957e-224,
            "150": -8.69540826753434e-225,
            "151": 6.657050243085496e-225,
            "152": -1.0895619684773628e-222,
            "153": -6.329862892964266e-223,
            "154": 6.970175326738858e-225,
            "155": -2.40647417088214e-224,
            "156": 3.688320159844788e-223,
            "157": 4.2235384591100226e-224,
            "158": 8.699062134909921e-225,
            "159": 1.3110377356202703e-224,
            "160": -2.2514470659525504e-222,
            "161": -1.9379553483877086e-222,
            "162": 1.7241084994513385e-223,
            "163": 4.621022182129264e-224,
            "164": 1.9587305176271726e-224,
            "165": -4.612634167345311e-224,
            "166": -2.914850620393467e-224,
            "167": -8.585676939377682e-226,
            "168": -3.861994071431586e-222,
            "169": -3.281576423106839e-222,
            "170": -6.677087308060788e-223,
            "171": -2.110492198344826e-223,
            "172": 2.6404490090165525e-223,
            "173": 3.4785536811787024e-224,
            "174": -7.19576250239975e-225,
            "175": -6.758084387102105e-224,
            "176": -3.697296553374795e-222,
            "177": -2.923652850111572e-222,
            "178": -1.4761507540170812e-222,
            "179": -6.266950770579103e-223,
            "180": -5.44861183113281e-224,
            "181": 1.0096826995814502e-224,
            "182": -1.0060704409447031e-224,
            "183": 5.499651216204819e-225,
            "184": -4.0284942395884203e-222,
            "185": -3.3236100754253204e-222,
            "186": -2.099287938801332e-222,
            "187": -1.7729224779292975e-222,
            "188": 3.9617097710839474e-223,
            "189": 4.4477082145872155e-223,
            "190": 1.33499260089899e-223,
            "191": -2.812079052972198e-224,
            "192": 5.859796598792506e-224,
            "193": -3.983379444933269e-224,
            "194": 4.578550369274604e-225,
            "195": -2.1287892120675266e-225,
            "196": 2.15919218141659e-223,
            "197": -2.309431337014735e-224,
            "198": 1.1442458071755353e-224,
            "199": -1.2148322372948152e-224,
            "200": 4.769643336936298e-223,
            "201": 6.0253083467589115e-223,
            "202": 5.517033670796766e-223,
            "203": 9.675034275279743e-223,
            "204": 1.0109768026057744e-222,
            "205": 1.6171516892814398e-222,
            "206": -2.3567480411484928e-222,
            "207": -2.3769046428706202e-222,
            "208": -2.4234556033180218e-222,
            "209": -2.8238666428915167e-222,
            "210": -2.8179139908908884e-222,
            "211": -2.8556038101011855e-222
          }
        },
        {
          "sx": 1,
          "sy": 1,
          "depth": 212,
          "w": {
            "0": -5.750845509824926e-224,
            "1": -3.8274349026738e-224,
            "2": 3.465616315896187e-224,
            "3": -2.458580252546124e-224,
            "4": -1.3913146397293239e-223,
            "5": -1.05732392920897e-223,
            "6": -1.2414927809001104e-223,
            "7": -1.2853019803854411e-223,
            "8": -4.316934494934637e-224,
            "9": -1.1133188193136971e-224,
            "10": 2.425881245614075e-224,
            "11": 2.087111658071087e-224,
            "12": -1.9562645092752322e-223,
            "13": -1.6192836207397394e-223,
            "14": -6.551587923612902e-225,
            "15": -1.6746725362751819e-224,
            "16": -2.0553511002957721e-224,
            "17": 5.731686398826003e-225,
            "18": -2.476337167718426e-224,
            "19": -2.829104535039033e-224,
            "20": -1.8165301483407606e-223,
            "21": -2.2445548096159934e-224,
            "22": -8.63056026418335e-225,
            "23": 1.940612430232299e-224,
            "24": -1.649434287591314e-224,
            "25": -4.0611336062951826e-224,
            "26": 2.2257842673355657e-224,
            "27": 3.434444923148601e-224,
            "28": -7.3184499377459e-224,
            "29": -5.502868798961482e-224,
            "30": 2.1848483651711526e-224,
            "31": 9.080488381421296e-225,
            "32": -9.058329407190512e-224,
            "33": -3.4163126333604646e-224,
            "34": -1.8438935529986201e-224,
            "35": -2.5697698183097107e-224,
            "36": -1.8613598440625416e-224,
            "37": 2.486716450373936e-224,
            "38": -1.1667295497661346e-224,
            "39": -1.8960649896420094e-224,
            "40": -6.804430417641346e-224,
            "41": -2.852459595526657e-224,
            "42": -1.185641227603671e-225,
            "43": 7.95369846700426e-225,
            "44": -1.2488736087143562e-223,
            "45": -9.166048730168203e-224,
            "46": -9.621647042500939e-224,
            "47": -6.133881659272643e-224,
            "48": -4.980563088302009e-224,
            "49": 4.757148042712854e-224,
            "50": 1.5033138596322847e-224,
            "51": -2.188679678562745e-224,
            "52": -3.2739252533750114e-224,
            "53": -5.614047462311165e-224,
            "54": 2.728766779554779e-224,
            "55": -1.4414919051480193e-224,
            "56": -4.2961238500585646e-225,
            "57": 1.4292774633657157e-224,
            "58": -9.094372453309479e-225,
            "59": -9.324149112954513e-225,
            "60": -1.3595929722545602e-223,
            "61": -1.0010227936745967e-223,
            "62": -2.5173135534191095e-224,
            "63": -2.1610358677738466e-224,
            "64": 1.4015167989873467e-224,
            "65": -1.6042171568079238e-225,
            "66": -2.0921495840982195e-224,
            "67": 2.1805608175137503e-224,
            "68": 1.8155566098493186e-224,
            "69": 3.3717464555115244e-224,
            "70": -7.98838355974122e-225,
            "71": 2.5996583473636044e-225,
            "72": -3.70769678612621e-224,
            "73": 1.875286126972491e-224,
            "74": 1.0810003278659714e-224,
            "75": -9.321912407208179e-225,
            "76": -2.0309917463465974e-224,
            "77": -3.9654792767834157e-224,
            "78": -1.985834571716726e-225,
            "79": 4.693690464966857e-224,
            "80": -7.466064868990868e-225,
            "81": 1.155851987179665e-224,
            "82": -2.5495325292682523e-224,
            "83": 1.0399884880646809e-225,
            "84": 1.5044752896440058e-224,
            "85": -1.8512005909839622e-224,
            "86": -8.611640862303235e-225,
            "87": 1.611620622940633e-224,
            "88": -6.841923581144342e-224,
            "89": -6.144063737124374e-224,
            "90": -2.8593421671911276e-224,
            "91": 7.60104830257067e-225,
            "92": -1.7432884318557463e-224,
            "93": 3.7022783164457425e-224,
            "94": -2.605145235003625e-224,
            "95": -2.2545031543751352e-224,
            "96": -4.931100774097154e-224,
            "97": 1.659088391699393e-224,
            "98": -2.47844969988615e-225,
            "99": -1.8707274928059067e-224,
            "100": -1.0436022017554994e-223,
            "101": -4.657108342579873e-224,
            "102": -4.346661282054269e-224,
            "103": -4.952803932659036e-224,
            "104": -2.3255304425981307e-224,
            "105": -1.1408373211522442e-224,
            "106": 1.3641631037497886e-226,
            "107": -5.833671238100575e-225,
            "108": -2.4310705788861166e-224,
            "109": -1.579339179873359e-224,
            "110": -3.6849044228148055e-225,
            "111": 2.127671616617148e-224,
            "112": -2.0086098148359493e-224,
            "113": 4.9794735983513126e-226,
            "114": 8.06016444741857e-225,
            "115": 3.640092022419106e-226,
            "116": -1.908344631553822e-224,
            "117": 4.775300871537533e-224,
            "118": -1.1757146657793355e-224,
            "119": -1.2607957707673478e-224,
            "120": 5.3860235055701056e-225,
            "121": 5.8053540078141585e-224,
            "122": -2.639406378178332e-224,
            "123": 8.627195928754089e-225,
            "124": 1.9586253174850353e-225,
            "125": 3.607852912822734e-224,
            "126": -1.7549657316934262e-224,
            "127": -8.749072323129684e-225,
            "128": -8.857423474437209e-224,
            "129": -6.58479170830326e-224,
            "130": -3.9153425614961837e-224,
            "131": 1.7284521673138864e-224,
            "132": 6.489922841702221e-225,
            "133": -7.037609719977182e-225,
            "134": -1.0283482939957554e-224,
            "135": -2.9876367280464787e-225,
            "136": -5.794761680673878e-224,
            "137": -2.0440997650186963e-224,
            "138": -1.055685378546251e-224,
            "139": 3.6625178222566536e-224,
            "140": 1.9629806378210187e-224,
            "141": 2.6020514659901973e-224,
            "142": 1.1117859926966186e-224,
            "143": 7.696621372883508e-227,
            "144": -1.152423165049935e-223,
            "145": -1.2244364827231183e-223,
            "146": -9.99989213315572e-224,
            "147": -7.001928532559372e-224,
            "148": 3.574246663084282e-224,
            "149": 1.2951082573703482e-224,
            "150": 3.336004768479401e-224,
            "151": -3.0303298801049697e-225,
            "152": -4.0001886684099406e-224,
            "153": -2.221730643152747e-224,
            "154": -3.2470003190491536e-225,
            "155": -2.953901525531884e-225,
            "156": 6.253737778156749e-224,
            "157": 1.2296836552042433e-224,
            "158": -1.9323140761471228e-224,
            "159": -1.9460066039191746e-225,
            "160": -7.638227595302736e-224,
            "161": -8.49311744744925e-224,
            "162": 3.753794138942152e-225,
            "163": 1.6275237288580225e-224,
            "164": 4.1473752336241387e-224,
            "165": -8.07556415567672e-226,
            "166": -2.7084012669488015e-224,
            "167": -3.550140088347417e-225,
            "168": -1.346555987073674e-223,
            "169": -1.7082797367059451e-223,
            "170": -6.808640066452372e-224,
            "171": 1.0235010547962603e-224,
            "172": -4.768136143014064e-224,
            "173": -3.363643538781775e-224,
            "174": -2.353888207531031e-224,
            "175": -1.5903179549163267e-224,
            "176": -2.207615448294777e-223,
            "177": -1.583964727313321e-223,
            "178": -9.78707083540086e-224,
            "179": -6.568459658302885e-224,
            "180": 1.6265108123759238e-224,
            "181": -3.094064078716554e-225,
            "182": 8.860671795011786e-225,
            "183": 3.0403967412171813e-224,
            "184": -7.999031439604372e-224,
            "185": -1.4423650558698768e-223,
            "186": -9.447723473063676e-224,
            "187": -1.0175728835281284e-223,
            "188": -5.920255871136026e-224,
            "189": -1.0101554532763434e-223,
            "190": -1.1523205750807977e-224,
            "191": 1.3773492548936984e-224,
            "192": -1.1824907204423475e-224,
            "193": -2.874956654905973e-224,
            "194": 8.647789174676867e-225,
            "195": 2.2247086778391647e-224,
            "196": 1.1765421999423704e-224,
            "197": 3.936239508469909e-224,
            "198": -4.7124405948281965e-225,
            "199": 2.1861403285444296e-224,
            "200": -1.6245570141241607e-223,
            "201": -1.7395532657532825e-223,
            "202": -1.972687250740449e-223,
            "203": -1.5214486963859773e-223,
            "204": -1.6559427866752996e-223,
            "205": -1.8669002154567362e-223,
            "206": -2.4435998268175434e-223,
            "207": -2.300897582241632e-223,
            "208": -2.425165739534934e-223,
            "209": -1.6673098566602624e-223,
            "210": -2.0521377941277593e-223,
            "211": -1.944849825195852e-223
          }
        },
        {
          "sx": 1,
          "sy": 1,
          "depth": 212,
          "w": {
            "0": 6.324252075285795e-223,
            "1": 5.0552573295682755e-223,
            "2": -4.861968548421921e-224,
            "3": -6.022011699230253e-226,
            "4": 8.391028876857467e-222,
            "5": 6.343456890106792e-222,
            "6": 4.899291850570731e-222,
            "7": 4.202621556190805e-222,
            "8": -4.781264796243499e-224,
            "9": -8.917536622357295e-225,
            "10": -2.0723036886916602e-224,
            "11": 2.597406587599471e-224,
            "12": 9.595962090297813e-222,
            "13": 7.663931672361327e-222,
            "14": 3.011186459728388e-222,
            "15": 2.1247111551761703e-222,
            "16": -2.93644075996393e-223,
            "17": 1.0111828221820182e-223,
            "18": -4.646041959809704e-224,
            "19": 8.588356540279124e-225,
            "20": 9.13193280773772e-222,
            "21": 6.806032949079669e-222,
            "22": 1.801484559930853e-222,
            "23": 5.216668769626354e-223,
            "24": -1.863705994991024e-223,
            "25": 1.6550910378438708e-223,
            "26": 8.535833815029567e-224,
            "27": 3.181872071241742e-224,
            "28": 4.039760117110437e-222,
            "29": 3.473866824695804e-222,
            "30": 3.955965468102692e-223,
            "31": -4.3138008210582005e-224,
            "32": -1.0756604001556344e-222,
            "33": -7.715673796965369e-224,
            "34": -2.0553616255370437e-223,
            "35": -1.5202136089349718e-223,
            "36": 2.241015664904755e-222,
            "37": 1.3626465195069313e-222,
            "38": 6.552299572446131e-223,
            "39": 8.85179744360249e-224,
            "40": -3.759369476729855e-223,
            "41": 1.5416510056451648e-224,
            "42": 1.6687074715310084e-224,
            "43": 2.1072915518069786e-224,
            "44": 1.8813875152156376e-222,
            "45": 1.6452082993213103e-222,
            "46": 8.964334366909923e-223,
            "47": 4.5914602473500535e-223,
            "48": -6.121522888504845e-224,
            "49": -1.7814358239452607e-223,
            "50": 7.017757047080767e-225,
            "51": -1.3077089262824137e-224,
            "52": 7.346359355440198e-223,
            "53": 2.561251361292917e-223,
            "54": 1.1003046207345016e-223,
            "55": 2.995267955471556e-224,
            "56": -5.0691553650523796e-223,
            "57": -3.0759098725046905e-224,
            "58": 6.1141249299271e-225,
            "59": -7.760870135981878e-225,
            "60": 8.054559639316519e-223,
            "61": 2.626869023164927e-223,
            "62": -1.4062449967754667e-223,
            "63": 4.804724389135745e-224,
            "64": -3.3596297912804063e-223,
            "65": 3.746625508078985e-224,
            "66": 4.609166740297433e-225,
            "67": -2.6970700938141147e-224,
            "68": -7.655420384801209e-224,
            "69": -1.2221595940645727e-223,
            "70": 1.2541545028051577e-225,
            "71": 7.167968270979934e-225,
            "72": 1.2349736456880672e-223,
            "73": -5.102716488351618e-224,
            "74": -1.4713366270132332e-224,
            "75": 1.0460390107913419e-224,
            "76": -4.583464880552623e-225,
            "77": -3.523894947975047e-224,
            "78": 2.6610795587428287e-225,
            "79": -1.4874715347440714e-224,
            "80": -3.752599562164632e-223,
            "81": -2.6349484565316853e-224,
            "82": -6.398959843669617e-225,
            "83": -1.4483418458665083e-224,
            "84": 5.612076163957095e-223,
            "85": 1.8499479936347653e-224,
            "86": -1.7940615774880489e-224,
            "87": -1.430730547208874e-224,
            "88": -8.249997235669761e-224,
            "89": 3.481072036537872e-223,
            "90": 3.9163826728308313e-224,
            "91": -2.647393506783666e-224,
            "92": 1.6042297997541696e-223,
            "93": 3.8406416604392676e-224,
            "94": 3.214429223203878e-224,
            "95": -2.3699558115583443e-224,
            "96": -5.410853045715105e-223,
            "97": -3.251295994092798e-224,
            "98": -1.549638989325673e-225,
            "99": 1.3494106231469596e-224,
            "100": 1.3320862046230116e-222,
            "101": 8.041162706877053e-223,
            "102": 4.5997080279651715e-223,
            "103": 4.248208923806969e-223,
            "104": -3.4446815252337145e-224,
            "105": -6.00902991054474e-224,
            "106": -9.278901563587933e-225,
            "107": -5.863218838560047e-224,
            "108": 1.6161647721931877e-223,
            "109": 4.1043759816426075e-224,
            "110": 2.6784329161735597e-224,
            "111": -1.0954861036861814e-224,
            "112": -2.79697906317752e-223,
            "113": 2.4217460147460015e-224,
            "114": 3.065660976028703e-224,
            "115": -3.209655882918943e-224,
            "116": 2.1208139775256785e-223,
            "117": 4.2285031732110176e-224,
            "118": 4.861175443704109e-225,
            "119": 2.2853470581776433e-224,
            "120": -2.280919958405166e-223,
            "121": 1.0799411604682946e-223,
            "122": -4.920678144767594e-225,
            "123": -2.695305776638225e-224,
            "124": 1.0157764319045931e-224,
            "125": 1.7698496086635606e-224,
            "126": 1.3003353974069916e-224,
            "127": -2.5152876580824064e-225,
            "128": 7.077893290071838e-223,
            "129": 6.663722868037365e-223,
            "130": 2.671168491887726e-223,
            "131": 1.3616642683655853e-223,
            "132": -2.392904489650395e-223,
            "133": -2.6572328866865572e-225,
            "134": -3.4924958060838235e-225,
            "135": 6.6757838652001905e-226,
            "136": 1.7503975003087777e-223,
            "137": 2.4843444757248104e-223,
            "138": 1.5935232855557134e-223,
            "139": -1.9317763206107945e-224,
            "140": 2.6618359338789034e-223,
            "141": -3.460969877326358e-224,
            "142": 3.57069740541241e-225,
            "143": -1.3069156113094878e-224,
            "144": 4.238055338804489e-223,
            "145": 7.692503798417653e-223,
            "146": 4.526953775303997e-223,
            "147": 4.905981731774219e-223,
            "148": 1.183861324311607e-222,
            "149": -8.152985144628258e-224,
            "150": 9.442970400849861e-225,
            "151": -2.4963295334411255e-224,
            "152": -2.1827725490181052e-222,
            "153": -1.1227091094032401e-222,
            "154": -3.970609456520364e-224,
            "155": -3.6141725693495474e-224,
            "156": 9.452103259836099e-223,
            "157": 7.209965768210554e-224,
            "158": 3.836293679051561e-224,
            "159": -1.5453012352787006e-224,
            "160": -4.385218736515678e-222,
            "161": -3.497927963051509e-222,
            "162": 3.9673451678342255e-223,
            "163": 1.4028126844376667e-223,
            "164": 1.1741365334606844e-223,
            "165": -1.0980092549919254e-223,
            "166": -4.411540984233077e-224,
            "167": -1.1344867847618063e-225,
            "168": -7.542956147063788e-222,
            "169": -6.239233077168249e-222,
            "170": -1.7403636200828302e-222,
            "171": -5.5045345903018234e-223,
            "172": 5.663090062596293e-223,
            "173": 1.1364207764795584e-223,
            "174": -7.729338048293276e-224,
            "175": -7.975803482431451e-224,
            "176": -7.227251599312632e-222,
            "177": -5.4529010015107976e-222,
            "178": -2.2212762373379515e-222,
            "179": -8.224636032462023e-223,
            "180": -2.8832866769242503e-224,
            "181": 4.397462201157336e-224,
            "182": 2.1577962345074952e-224,
            "183": 1.9285006100102647e-224,
            "184": -7.771913411509213e-222,
            "185": -6.209168599588883e-222,
            "186": -3.479321174685161e-222,
            "187": -2.762703349876554e-222,
            "188": 8.591968898967783e-223,
            "189": 8.34856060891207e-223,
            "190": 2.4911713418385534e-223,
            "191": -1.1931280205105246e-224,
            "192": 7.941113257784124e-224,
            "193": -1.3645283106896889e-223,
            "194": 1.9860464578397707e-225,
            "195": 1.0600178009577386e-224,
            "196": 5.222766982126461e-223,
            "197": 9.860592707357714e-225,
            "198": -1.413133670030472e-224,
            "199": -9.395447944435783e-225,
            "200": 1.1304861110827583e-222,
            "201": 1.4888818981865784e-222,
            "202": 1.4648597523671466e-222,
            "203": 2.3188943194340108e-222,
            "204": 2.4914336616903836e-222,
            "205": 3.7457645256259315e-222,
            "206": -3.920261107088746e-222,
            "207": -3.970681841287807e-222,
            "208": -3.8788313199008336e-222,
            "209": -5.0373900428875625e-222,
            "210": -4.98649924344024e-222,
            "211": -5.187292560294804e-222
          }
        },
        {
          "sx": 1,
          "sy": 1,
          "depth": 212,
          "w": {
            "0": -1.1010102589818528e-222,
            "1": -9.202058665233748e-223,
            "2": 8.417531618612633e-224,
            "3": 2.18855049867803e-224,
            "4": -1.039458938996605e-221,
            "5": -7.705340315398327e-222,
            "6": -6.08713728694237e-222,
            "7": -5.324815107618989e-222,
            "8": 2.7089112722457027e-224,
            "9": -2.0610726582020638e-224,
            "10": 7.576320697774547e-225,
            "11": -2.8235855188313265e-224,
            "12": -1.183634465836768e-221,
            "13": -9.537329696624464e-222,
            "14": -3.356578512731165e-222,
            "15": -2.4498680733344908e-222,
            "16": 3.203002673639364e-223,
            "17": -1.5855244059799187e-223,
            "18": 3.5432469503274906e-224,
            "19": 1.2264846605790934e-224,
            "20": -1.1386086485261517e-221,
            "21": -8.330010585805104e-222,
            "22": -2.3540983968462982e-222,
            "23": -7.359778930271165e-223,
            "24": 3.4355948778144396e-223,
            "25": -9.909525906725872e-224,
            "26": -8.477192874653998e-224,
            "27": -3.570619684200932e-224,
            "28": -5.0172889431473537e-222,
            "29": -4.174892049862778e-222,
            "30": -6.1613636235452615e-223,
            "31": 7.199801572466461e-225,
            "32": 1.0770043606404384e-222,
            "33": 1.4218827017005383e-225,
            "34": 2.439157997589941e-223,
            "35": 1.0369457182522501e-223,
            "36": -2.614585317785855e-222,
            "37": -1.5817410691344348e-222,
            "38": -9.506896187142199e-223,
            "39": -9.745993665382352e-224,
            "40": 1.2111788343599923e-222,
            "41": -1.4360871790767505e-224,
            "42": -4.32872463124856e-225,
            "43": 3.246977820329517e-225,
            "44": -2.8344961491416505e-222,
            "45": -2.4848254959198248e-222,
            "46": -1.445325845591392e-222,
            "47": -9.399607892482842e-223,
            "48": 6.757330948633667e-224,
            "49": 2.0771613801700842e-223,
            "50": -2.5135283589280302e-225,
            "51": -3.4026078953832324e-224,
            "52": -9.687851175618711e-223,
            "53": -6.259709602554397e-223,
            "54": -1.7883332564425545e-223,
            "55": -4.171000124227942e-224,
            "56": 6.370822728888006e-223,
            "57": 2.470972458125324e-224,
            "58": -2.2564132081621813e-224,
            "59": -7.06240967171629e-225,
            "60": -1.5619453398876276e-222,
            "61": -7.421586073063182e-223,
            "62": -1.904884410964543e-224,
            "63": -8.766344364598892e-224,
            "64": 4.028635817046102e-223,
            "65": -9.022385381229175e-225,
            "66": -1.7310516167849087e-224,
            "67": 8.330709507694035e-225,
            "68": 2.770967074948752e-224,
            "69": 7.569891155723065e-224,
            "70": 2.2465366568145624e-224,
            "71": -5.138623971538555e-225,
            "72": -1.484908401845155e-223,
            "73": 6.5753339872179255e-224,
            "74": -8.293494931325653e-225,
            "75": 1.352566564558496e-224,
            "76": 1.7797432335205675e-224,
            "77": 1.5479922205009836e-224,
            "78": -2.264092132992014e-224,
            "79": -1.7948896925791103e-224,
            "80": 4.720396852245175e-223,
            "81": -2.1069947209290678e-224,
            "82": -4.440711450085389e-224,
            "83": -4.583541349374579e-225,
            "84": -6.229447661762083e-223,
            "85": 3.801752805623681e-225,
            "86": 4.974978249353602e-224,
            "87": 2.773602170497357e-224,
            "88": 6.332321683634479e-223,
            "89": -7.557480039911294e-223,
            "90": -2.102746906264057e-223,
            "91": -6.540321699531875e-224,
            "92": -1.4706672179500536e-223,
            "93": -7.264384173015299e-224,
            "94": -1.5995085135904956e-224,
            "95": 2.5960092563989655e-224,
            "96": 5.463739278242526e-223,
            "97": 1.6851726094417678e-224,
            "98": -3.6409262022898614e-224,
            "99": -2.671775760704763e-224,
            "100": -2.042607177900728e-222,
            "101": -1.3579329156746565e-222,
            "102": -7.577433027778057e-223,
            "103": -6.7317342212505536e-223,
            "104": 2.5106726575617287e-223,
            "105": 2.9731818041767835e-224,
            "106": 1.6169075991380883e-224,
            "107": 1.3117278182497074e-224,
            "108": -2.8163382480576164e-223,
            "109": -3.0108525017053447e-224,
            "110": -2.770249417882554e-224,
            "111": -1.0465440864948872e-224,
            "112": 3.477257326520444e-223,
            "113": 7.358884555424043e-226,
            "114": 5.681901000508964e-225,
            "115": -4.7621503001328864e-225,
            "116": -1.3079605241722884e-223,
            "117": -5.385353799627923e-224,
            "118": 8.890581041014538e-225,
            "119": -1.9369879889097862e-224,
            "120": 3.1107584513607875e-223,
            "121": -1.5533230231472361e-223,
            "122": -5.179543123866064e-224,
            "123": -1.7265920931425251e-224,
            "124": -2.6768686977759204e-224,
            "125": 2.710313434317127e-224,
            "126": 2.4603525064687213e-224,
            "127": -9.294053448639917e-225,
            "128": -1.2725005710372436e-222,
            "129": -1.2802528140979111e-222,
            "130": -5.500274090027705e-223,
            "131": -1.4548857763482942e-223,
            "132": 2.9231766441352965e-223,
            "133": 8.005448860092814e-224,
            "134": 1.8021770689459465e-224,
            "135": 3.0435288513373493e-224,
            "136": -3.69596099475939e-223,
            "137": -4.786709875694117e-223,
            "138": -2.680348465587522e-223,
            "139": -1.2635551572260683e-224,
            "140": -2.7373124833869823e-223,
            "141": 4.2290992035365953e-224,
            "142": -1.2649476294429192e-225,
            "143": 4.844404618855799e-225,
            "144": -3.1363293839605255e-223,
            "145": -1.538288546539625e-222,
            "146": -9.828821279854748e-223,
            "147": -9.187675488906696e-223,
            "148": -1.3979858835079204e-222,
            "149": 1.5347884387990673e-223,
            "150": 2.773062602928406e-224,
