{
  "layers": [
    {
      "out_depth": 212,
      "out_sx": 1,
      "out_sy": 1,
      "layer_type": "input"
    },
    {
      "out_depth": 40,
      "out_sx": 1,
      "out_sy": 1,
      "layer_type": "fc",
      "num_inputs": 212,
      "l1_decay_mul": 0,
      "l2_decay_mul": 1,
      "filters": [
        {
          "sx": 1,
          "sy": 1,
          "depth": 212,
          "w": {
            "0": 0.06402554715665423,
            "1": 0.1033076787622977,
            "2": 0.08384322913853205,
            "3": 0.07354187953878914,
            "4": -0.09357682149228949,
            "5": -0.07684097795304058,
            "6": -0.057392011154698795,
            "7": -0.009083722779813784,
            "8": -0.012256644892675871,
            "9": -0.014010796409431713,
            "10": -0.009125754028040512,
            "11": 0.006065781696391652,
            "12": -0.01517774368926759,
            "13": -0.006776670924207481,
            "14": 0.04063899021516183,
            "15": 0.03310112746635831,
            "16": -0.016716984496341982,
            "17": -0.024840371084119902,
            "18": -0.010966890219039776,
            "19": -0.008255404319899618,
            "20": 0.007783731576981708,
            "21": -0.0030724982069549557,
            "22": 0.04622883518340441,
            "23": 0.044558600877039035,
            "24": -0.00034746165564715557,
            "25": -0.014258462128588426,
            "26": -0.006726956485667058,
            "27": -0.005898950230515091,
            "28": 0.01098221349925068,
            "29": 0.01371465710997464,
            "30": 0.06201104730584452,
            "31": 0.014400915480947232,
            "32": 0.000743158141699459,
            "33": -0.004121094869310228,
            "34": 0.00011183339047949421,
            "35": 0.0024423043676091677,
            "36": 0.021659048542703847,
            "37": 0.0244465553605658,
            "38": 0.03738579227591497,
            "39": 0.01028288498832947,
            "40": -0.004187665764449008,
            "41": -0.002159284736282688,
            "42": -0.01990184214767719,
            "43": -0.005856483302915132,
            "44": -0.010083789849176303,
            "45": 0.03762649374434671,
            "46": 0.03435714926661256,
            "47": 0.0051180403432814735,
            "48": 0.015477816716067412,
            "49": 0.0056246215574152275,
            "50": 0.003501272504312613,
            "51": 0.00010784330389967785,
            "52": -0.004431298013056916,
            "53": -0.02488772055321808,
            "54": 0.0033733372777363254,
            "55": 0.0011960427451613081,
            "56": 0.017523981927824967,
            "57": -0.00686887033249608,
            "58": 0.001413470463004167,
            "59": 0.009638944934381664,
            "60": -0.03085809491293275,
            "61": -0.02525142823950208,
            "62": -0.01389229328545826,
            "63": -0.007072634507745515,
            "64": 0.023140158056434636,
            "65": -0.00851246176694186,
            "66": 0.0026342456589773197,
            "67": 0.009446697259197246,
            "68": -0.007572307452375698,
            "69": -0.013970596490542242,
            "70": 0.01245897659190236,
            "71": -0.006515958190312342,
            "72": 0.012835059501726948,
            "73": -0.0009225697779460468,
            "74": -0.013444530582660109,
            "75": 0.003681852575772391,
            "76": -0.001051422171066197,
            "77": -0.003423330306609213,
            "78": -0.00021393378208071047,
            "79": 0.009136592424049267,
            "80": -0.0048769901752077766,
            "81": -0.005154124656426119,
            "82": 0.003611071473487689,
            "83": 0.007139034512645043,
            "84": -0.010149247541029242,
            "85": -0.0035868857802989667,
            "86": 0.0040175644489296196,
            "87": 0.005512557849872802,
            "88": 0.021463749412240808,
            "89": 0.011480769479049248,
            "90": 0.007466639509216139,
            "91": 0.015402745278252675,
            "92": -0.009829151783703423,
            "93": -0.008283095018575538,
            "94": 0.003762156642891438,
            "95": 0.0019898137592894902,
            "96": -0.019904569200829017,
            "97": 0.011816368427208544,
            "98": 0.01117486003844809,
            "99": 0.013712240904527839,
            "100": -0.03121192115828175,
            "101": -0.016885162064069235,
            "102": 0.0026706582187938097,
            "103": 0.002276435587502943,
            "104": 0.005358001368701257,
            "105": -0.01628952229461978,
            "106": 0.00484043041574738,
            "107": 0.0082963616934274,
            "108": -0.017295225852675466,
            "109": 0.006282992508758452,
            "110": -0.001028711106997193,
            "111": -0.010153989024317883,
            "112": -0.008930168549496499,
            "113": 0.007054445803290053,
            "114": -0.00961533520474345,
            "115": -0.010404030087719493,
            "116": -0.016953723614298397,
            "117": -0.010998448809938154,
            "118": 0.0065828466514818215,
            "119": 0.0021510377437853542,
            "120": 0.014170301318383875,
            "121": 0.000354838416778296,
            "122": 0.003838182132324581,
            "123": -0.0015675533241071005,
            "124": -0.01137541924933586,
            "125": -0.0004602841214001942,
            "126": -0.006123804602750236,
            "127": -0.018033532341556614,
            "128": -0.024100031653807478,
            "129": -0.005575517560676984,
            "130": 0.0010304667350794737,
            "131": 0.0031212157435817492,
            "132": -0.011055315405349968,
            "133": -0.015658190017478577,
            "134": 0.0013916849038162862,
            "135": -0.015528603249565447,
            "136": -0.013647712644127192,
            "137": -0.009820758280358199,
            "138": -0.012690338391894797,
            "139": -0.0032086781187777827,
            "140": -0.018119993967835,
            "141": -0.0030513687268009767,
            "142": -0.010580028311333534,
            "143": -0.0010393691923018741,
            "144": -0.009239322741220801,
            "145": -0.021984928127856507,
            "146": -0.009388121006375691,
            "147": -0.0057991034620746675,
            "148": -0.03544644165629345,
            "149": -0.013090426807067346,
            "150": 0.0013636780991752972,
            "151": -0.0002340878661281118,
            "152": 0.01659246675425985,
            "153": -0.015541121852955005,
            "154": -0.007949582420310602,
            "155": -0.0026403037362215,
            "156": -0.04717657078880406,
            "157": -0.022240240359910898,
            "158": -0.0032834535588017037,
            "159": -0.009876521933946895,
            "160": -0.010425784687605702,
            "161": -0.009059308543685836,
            "162": -0.024946405870836033,
            "163": 0.002255676091394249,
            "164": -0.020695261084311554,
            "165": -0.0055077911125495085,
            "166": -0.01852534406176349,
            "167": -0.004953308115474404,
            "168": -0.02734819977381255,
            "169": -0.03105663492119324,
            "170": -0.07014065263643063,
            "171": -0.03256994126339055,
            "172": -0.00701373217870141,
            "173": -0.021958404086980673,
            "174": -0.003985044901312423,
            "175": 0.004464826544227748,
            "176": -0.04715335632762025,
            "177": -0.0488447638431732,
            "178": -0.05661220427647052,
            "179": -0.0640698846563567,
            "180": -0.016792180475575173,
            "181": 0.005867196182641482,
            "182": 0.0062198607480988145,
            "183": 0.004109332515779312,
            "184": 0.03038115740843029,
            "185": 0.0038938116679442425,
            "186": -0.004427476771434129,
            "187": -0.028086276357144835,
            "188": -0.042446002558247556,
            "189": -0.02690651069250839,
            "190": -0.0062884442210220095,
            "191": -0.003780732952582268,
            "192": -0.05226249456681856,
            "193": -0.012264555976769018,
            "194": -0.02530456186418218,
            "195": -0.00391775045939193,
            "196": -0.03465068606916889,
            "197": -0.01974196820393213,
            "198": -0.01117790338050998,
            "199": 0.01676267088224876,
            "200": -0.009427264884869143,
            "201": -0.015515484734688896,
            "202": -0.0067180163986005825,
            "203": -0.016578843837269687,
            "204": -0.01567939723225334,
            "205": -0.0026470496447829053,
            "206": -0.11122805637510409,
            "207": -0.1277974409007649,
            "208": -0.09462863763601903,
            "209": -0.049380762754085726,
            "210": -0.034968839891398866,
            "211": -0.026669470525598142
          }
        },
        {
          "sx": 1,
          "sy": 1,
          "depth": 212,
          "w": {
            "0": 0.008758152521153707,
            "1": 0.01216404041454396,
            "2": 0.003517703080282919,
            "3": 0.00449850616466488,
            "4": -0.16635050185439282,
            "5": -0.16709543723090964,
            "6": -0.08814353609605625,
            "7": -0.1184312737446458,
            "8": -0.01754230311029089,
            "9": 0.002162267528999155,
            "10": -0.016357021846416114,
            "11": -0.005917239228813603,
            "12": -0.124810241655598,
            "13": -0.03267633496029939,
            "14": -0.03957789966696425,
            "15": -0.05720712499242459,
            "16": -0.0013834043516202305,
            "17": -0.010258165409752827,
            "18": -0.005014435545235227,
            "19": -0.011769876027570887,
            "20": -0.13789657706362346,
            "21": -0.06634470400776182,
            "22": 0.003157023334509354,
            "23": 0.005435918393724635,
            "24": 0.0038861852625825303,
            "25": -0.040462998354053197,
            "26": 0.0070534325311379835,
            "27": 0.014609685894350731,
            "28": -0.14920609482240105,
            "29": -0.07559452876739205,
            "30": -0.0010165618479565414,
            "31": -0.0010717933209313192,
            "32": 0.0364462435205488,
            "33": 0.015360329684119529,
            "34": 0.0034182558145684112,
            "35": 0.0011029061417187568,
            "36": -0.07661276179466894,
            "37": -0.05318154621015849,
            "38": -0.01652504599300711,
            "39": -0.010037032244949782,
            "40": 0.1297364496045308,
            "41": 0.015231927106532912,
            "42": -0.015666829342276877,
            "43": -0.01328025111728951,
            "44": -0.12245820229105095,
            "45": -0.04692337939142406,
            "46": -0.014021250173550182,
            "47": -0.006499526869252811,
            "48": 0.043502297418951105,
            "49": 0.017618470649322576,
            "50": 0.0014655274772429098,
            "51": -0.0023647655283715262,
            "52": -0.050269246019242805,
            "53": -0.035925544691278316,
            "54": -0.019024377854122036,
            "55": -0.01448462532040127,
            "56": 0.0304265755660925,
            "57": -0.006866929541874938,
            "58": -0.006376731489783881,
            "59": -0.007504916313365398,
            "60": -0.03353559425402958,
            "61": -0.027055208522181292,
            "62": -0.0022368580023297523,
            "63": 0.00740500877663826,
            "64": -0.006104896546321349,
            "65": -0.023834176932737105,
            "66": -0.003929222690870617,
            "67": -0.014199068184397269,
            "68": -0.01952005765272778,
            "69": 0.00006202009426842655,
            "70": 0.00042590426518548133,
            "71": 0.004298265366358922,
            "72": 0.019951889054566182,
            "73": -0.014461903113456957,
            "74": 0.0032454601987066943,
            "75": 0.0022869587451964553,
            "76": -0.028769260326815604,
            "77": -0.0007975304638525393,
            "78": -0.0018844698660293023,
            "79": -0.0005954502245886228,
            "80": 0.016362331087082432,
            "81": -0.0022069053692860517,
            "82": 0.0020047369531566873,
            "83": -0.005773865936357316,
            "84": 0.0055729144443718,
            "85": 0.006046491714371498,
            "86": 0.0060563300044359026,
            "87": -0.002937186620932944,
            "88": 0.048211450149599384,
            "89": -0.006370953901199546,
            "90": -0.016180357733557627,
            "91": -0.028312208590095252,
            "92": -0.03698041993777795,
            "93": -0.01396916236330492,
            "94": -0.001196298071177848,
            "95": -0.007435953076965271,
            "96": 0.0013325145916159157,
            "97": 0.01384498509130215,
            "98": -0.0017468847335913352,
            "99": 0.0048698825414167065,
            "100": -0.05398569550436168,
            "101": -0.022199908639747346,
            "102": -0.011526816686680093,
            "103": -0.02782713166045186,
            "104": 0.005559037524296305,
            "105": 0.011469662634944613,
            "106": -0.011054589207291932,
            "107": -0.0004656220142462553,
            "108": -0.06876103942012127,
            "109": -0.0042345878314702275,
            "110": -0.007433962345540389,
            "111": -0.002183502182801801,
            "112": 0.027807840358506204,
            "113": -0.009841000887886066,
            "114": 0.002666690566305656,
            "115": -0.010510028875839681,
            "116": -0.016080975306677868,
            "117": -0.00036265450097710324,
            "118": 0.008549954304751708,
            "119": 0.0005278675661441852,
            "120": 0.025964528510910738,
            "121": 0.005830185797212889,
            "122": -0.009063802708022496,
            "123": -0.008363691231069526,
            "124": -0.02129660951406371,
            "125": -0.017355324144382286,
            "126": -0.005054224475526076,
            "127": -0.0027742888207983553,
            "128": 0.010690332865214725,
            "129": -0.010647567777576415,
            "130": -0.006217508272620693,
            "131": 0.004254258453736221,
            "132": -0.011999228800333939,
            "133": -0.00373897732611104,
            "134": -0.0044926964749054795,
            "135": -0.0011948321629231162,
            "136": 0.032510885322344626,
            "137": 0.014998648956017973,
            "138": -0.006371327543516232,
            "139": -0.002986941653826691,
            "140": -0.0362081115906692,
            "141": 0.006785709232362157,
            "142": -0.0015966430224051281,
            "143": -0.009982587977660677,
            "144": 0.056122881849342075,
            "145": -0.022801022917230157,
            "146": -0.012697904428595872,
            "147": -0.004872861536083459,
            "148": -0.0793552815071013,
            "149": -0.02567573797295517,
            "150": 0.0007009248795577527,
            "151": 0.013773593496006202,
            "152": 0.05094134885039356,
            "153": -0.017185096295531024,
            "154": -0.016137222674347213,
            "155": -0.0040244750493477624,
            "156": -0.13662430608343235,
            "157": -0.004756895075814502,
            "158": -0.0028660223520895704,
            "159": -0.01618282383760805,
            "160": 0.04907254406603728,
            "161": 0.026799145696558245,
            "162": -0.016312750580680296,
            "163": 0.005988063157883592,
            "164": -0.06476093041582487,
            "165": -0.014781504545240128,
            "166": -0.020833996662991988,
            "167": -0.015184580946012929,
            "168": 0.18998589559808277,
            "169": 0.05805251351860445,
            "170": 0.0009468034887196465,
            "171": -0.028825448600857444,
            "172": -0.0401008481303494,
            "173": -0.020877820035058114,
            "174": 0.0010507149178337024,
            "175": 0.0014785014031208237,
            "176": 0.15433158442315292,
            "177": 0.10304347429321445,
            "178": 0.02780779714537584,
            "179": 0.008728286907816699,
            "180": -0.0039718047373763785,
            "181": 0.0126276685076798,
            "182": 0.005239761621800335,
            "183": -0.011326084944957154,
            "184": 0.18091003746002937,
            "185": 0.1369361346184294,
            "186": 0.045838087818928605,
            "187": 0.08437544321149773,
            "188": -0.009206510093602793,
            "189": -0.02235830804702379,
            "190": -0.010249252518338279,
            "191": -0.0043611601241383465,
            "192": -0.015196826172819939,
            "193": -0.0010622263109415387,
            "194": -0.008611105542044615,
            "195": 0.005939582723029589,
            "196": -0.07171058546086659,
            "197": -0.01812674236463417,
            "198": -0.006597583569737663,
            "199": -0.010017046610459957,
            "200": -0.0003447510140134314,
            "201": -0.01226167644266234,
            "202": -0.004708874723716183,
            "203": -0.03186571053377386,
            "204": -0.007274194196692766,
            "205": -0.0324739510284643,
            "206": 0.10197373564556825,
            "207": 0.11016268924712926,
            "208": 0.11020764370017119,
            "209": 0.08187696750810894,
            "210": 0.09787571401894489,
            "211": 0.11642117249471826
          }
        },
        {
          "sx": 1,
          "sy": 1,
          "depth": 212,
          "w": {
            "0": -0.040679222100894634,
            "1": -0.041724851383237484,
            "2": -0.0271707991733331,
            "3": -0.01723407603813778,
            "4": 0.12750912503592238,
            "5": 0.18859660278635712,
            "6": 0.1827483821353035,
            "7": 0.11064171253676967,
            "8": 0.046856271872876366,
            "9": 0.04090951794614101,
            "10": 0.014612231449603007,
            "11": 0.012390081406840725,
            "12": 0.1429112459915837,
            "13": 0.12888839433080082,
            "14": 0.053604313434047875,
            "15": 0.03966301808613156,
            "16": 0.012525425188732309,
            "17": 0.011777307696645322,
            "18": -0.0057463236106570035,
            "19": 0.0071038769742366465,
            "20": 0.1716525514251844,
            "21": 0.18253417811715097,
            "22": -0.009930354232337806,
            "23": -0.0048003227358854855,
            "24": 0.01728937041287673,
            "25": 0.024553687057293393,
            "26": 0.01872623062699161,
            "27": 0.012590130604473214,
            "28": 0.17219589185324857,
            "29": 0.09346907398964607,
            "30": -0.05061893672940326,
            "31": -0.023118085629460397,
            "32": -0.12265095812805402,
            "33": -0.03758138930781953,
            "34": -0.01292513851382309,
            "35": 0.014906196939987355,
            "36": -0.008019242293423118,
            "37": -0.02515042864767801,
            "38": -0.013420529886341782,
            "39": -0.0242471046700366,
            "40": -0.09128322764188834,
            "41": -0.01940832857025433,
            "42": 0.004665031877066856,
            "43": -0.0030599351586004576,
            "44": 0.015432839894350495,
            "45": -0.03439014812399826,
            "46": -0.010577674341414305,
            "47": -0.013755421240946489,
            "48": -0.03607536711796404,
            "49": -0.005790071980356139,
            "50": 0.011708832603429769,
            "51": 0.005575915921789584,
            "52": -0.004087517060992811,
            "53": 0.0023234285761488636,
            "54": -0.014694203688089075,
            "55": -0.00939752413198004,
            "56": -0.011098497940562509,
            "57": -0.0025567197483281155,
            "58": -0.009517682178597164,
            "59": 0.006262762056330155,
            "60": 0.040788244824063166,
            "61": 0.02498993141222536,
            "62": 0.0038920258950637912,
            "63": 0.0007774159487346924,
            "64": -0.0046951102342026275,
            "65": 0.007510443120049098,
            "66": 0.005370095960926356,
            "67": 0.00428649115198267,
            "68": 0.007873837088815257,
            "69": 0.0030375629096392937,
            "70": 0.016058991744650513,
            "71": -0.0033467336958138624,
            "72": -0.028428667790582656,
            "73": 0.008063612587707124,
            "74": 0.003972986767259997,
            "75": -0.01031966745332701,
            "76": -0.022908153747433487,
            "77": 0.0051050412935458546,
            "78": 0.014305635065037368,
            "79": 0.0141274706644581,
            "80": 0.020381160657518937,
            "81": 0.001510693283790838,
            "82": 0.007588768412619032,
            "83": -0.00935618307678227,
            "84": 0.0038874133180923512,
            "85": 0.013789956160628164,
            "86": -0.00925896338548348,
            "87": -0.005192660698009183,
            "88": -0.017972116483017934,
            "89": 0.012176311835302744,
            "90": 0.0014287661274874034,
            "91": -0.013060389847027065,
            "92": 0.003646304989539505,
            "93": -0.006562860092155665,
            "94": 0.0006449865506737023,
            "95": 0.008200177246649908,
            "96": 0.006206695671336472,
            "97": 0.002942818541019978,
            "98": -0.004971205001551642,
            "99": -0.0016547869032760847,
            "100": -0.10028537057215499,
            "101": -0.0062938846062314795,
            "102": -0.02691010768567221,
            "103": -0.020027136714031158,
            "104": -0.0058141529774256625,
            "105": 0.008161793078331996,
            "106": -0.012562953270951588,
            "107": 0.0001993871739538085,
            "108": 0.011248511129581442,
            "109": 0.002778140339251365,
            "110": -0.00007516247240362277,
            "111": -0.002768591493159509,
            "112": 0.017340170027432107,
            "113": -0.0058211452662200475,
            "114": 0.003316228479081545,
            "115": 0.0034896852158206463,
            "116": 0.003485681046752861,
            "117": 0.002763122794271075,
            "118": 0.0018212108645971382,
            "119": 0.0009178357243283692,
            "120": -0.058461657005849745,
            "121": -0.009599239800349395,
            "122": -0.005288139971585589,
            "123": 0.005469039273514192,
            "124": -0.003034714520364309,
            "125": -0.01265319826024913,
            "126": 0.013853699546837742,
            "127": 0.000571126328382761,
            "128": -0.06358515369989735,
            "129": -0.02161587396379851,
            "130": -0.000738105234520516,
            "131": 0.006654925527258654,
            "132": -0.032336110361330515,
            "133": -0.01359909339127109,
            "134": 0.003540233008198549,
            "135": -0.004229573280074186,
            "136": -0.09116148910116538,
            "137": -0.031132323745007913,
            "138": 0.020651535968410233,
            "139": 0.0006040948844820188,
            "140": -0.01743408432000033,
            "141": 0.020133992647792583,
            "142": 0.003919699387448371,
            "143": -0.007571636202516344,
            "144": -0.18822514776692878,
            "145": -0.14967488160084555,
            "146": -0.06414266927995688,
            "147": -0.02496456894727248,
            "148": 0.05391867023494961,
            "149": 0.00046598229053593736,
            "150": -0.01987568391815554,
            "151": -0.0031998862976457478,
            "152": -0.14056830296626344,
            "153": -0.12654386825810107,
            "154": -0.02863815813900498,
            "155": -0.0033936642543559744,
            "156": 0.015378011438388496,
            "157": -0.05307480873618376,
            "158": 0.003186323556859153,
            "159": -0.0029176631154067285,
            "160": -0.13107714594548397,
            "161": -0.10322456154346298,
            "162": -0.06038592375116433,
            "163": -0.05677809736381186,
            "164": -0.017697741089385256,
            "165": -0.02720006108811094,
            "166": 0.007691166943209457,
            "167": -0.010417702940408202,
            "168": -0.050755259378858116,
            "169": -0.09337757767815846,
            "170": -0.06757939560495088,
            "171": -0.06988107238456906,
            "172": 0.018164842448121464,
            "173": -0.0023122132119348243,
            "174": -0.014634369895937001,
            "175": 0.0010125649469503862,
            "176": -0.15012474563574588,
            "177": -0.14178228093895126,
            "178": -0.030095250778578952,
            "179": -0.0456156005866491,
            "180": -0.024045110865111175,
            "181": -0.019622531539926855,
            "182": -0.010471086210463665,
            "183": 0.004957874356100679,
            "184": -0.2079693977247975,
            "185": -0.08914439012743201,
            "186": -0.11093858917709866,
            "187": -0.0678876754714562,
            "188": -0.03698534165940809,
            "189": -0.060160484615213575,
            "190": -0.03382365382198032,
            "191": 0.00028305805313791853,
            "192": 0.07318526538463152,
            "193": 0.06150959081532843,
            "194": 0.030366918777781866,
            "195": 0.014835655543339583,
            "196": -0.14612308595805867,
            "197": -0.047914412929933384,
            "198": -0.0006458961410788801,
            "199": 0.005511658707829328,
            "200": 0.09378072903329379,
            "201": 0.1767228275487733,
            "202": 0.17480515718384357,
            "203": 0.17122629761424413,
            "204": 0.13028159077931623,
            "205": 0.14076169879943726,
            "206": -0.11883850771937364,
            "207": -0.14353767817771057,
            "208": -0.15776881845712656,
            "209": -0.14328090531545265,
            "210": -0.1345903708411387,
            "211": -0.11079566927054305
          }
        },
        {
          "sx": 1,
          "sy": 1,
          "depth": 212,
          "w": {
            "0": 0.00677463984887992,
            "1": 0.01800976710793656,
            "2": 0.010428708283906279,
            "3": -0.015315326793022012,
            "4": -0.050404799334483545,
            "5": -0.08127509550287779,
            "6": -0.059225350445336805,
            "7": -0.10053114039841064,
            "8": -0.002577199341902135,
            "9": 0.0027013387222227406,
            "10": -0.0022799538957232308,
            "11": -0.013949629450282157,
            "12": -0.05609970154414469,
            "13": -0.020803508168451133,
            "14": 0.007492913831841721,
            "15": -0.019872744629335637,
            "16": -0.009844054220371101,
            "17": -0.02484377800030627,
            "18": -0.02187945180944785,
            "19": -0.0018255075208121565,
            "20": -0.04125472662980361,
            "21": 0.00691984909854866,
            "22": 0.028536555493706102,
            "23": 0.0023159312305025613,
            "24": -0.006208323736644833,
            "25": -0.02938379785401227,
            "26": -0.017276708235541265,
            "27": -0.0015581770938394265,
            "28": -0.019238451214448678,
            "29": -0.05423748138203021,
            "30": -0.017191862623366656,
            "31": -0.02320274975834699,
            "32": 0.03427345359085098,
            "33": -0.02759319093349506,
            "34": -0.03682764242458819,
            "35": -0.020083819484996455,
            "36": -0.0540840042776435,
            "37": -0.033875531276005615,
            "38": -0.000016607468857170796,
            "39": -0.012114143569557239,
            "40": 0.07123309485252226,
            "41": -0.023665679914960353,
            "42": -0.018924412741509387,
            "43": -0.013342943498421373,
            "44": -0.03166758343981603,
            "45": -0.03125400945483036,
            "46": -0.009722472256310892,
            "47": -0.0003548581650925622,
            "48": 0.027870059320391372,
            "49": -0.017750965983840364,
            "50": -0.01176659614277419,
            "51": 0.00016748004152439104,
            "52": -0.014122511514095661,
            "53": -0.0179843292638149,
            "54": -0.01825904940287389,
            "55": -0.019382200983700675,
            "56": -0.0026811451097764815,
            "57": -0.007310723393366968,
            "58": 0.004195810333657892,
            "59": -0.007875426702908849,
            "60": -0.008720349523326034,
            "61": -0.003398543894011958,
            "62": 0.00891471855892416,
            "63": -0.0058240458645523446,
            "64": -0.017825140979077312,
            "65": -0.013325304089949941,
            "66": -0.006540636207454442,
            "67": -0.0027970930319094482,
            "68": -0.007765541311259993,
            "69": 0.011511802438119778,
            "70": -0.008357302357287452,
            "71": 0.010081104028058787,
            "72": -0.031665385690665224,
            "73": -0.022006105677607118,
            "74": -0.009722795504893009,
            "75": -0.0035865555778473363,
            "76": -0.009810799501942349,
            "77": 0.004104794623851414,
            "78": -0.011874958822155139,
            "79": 0.012936363716100687,
            "80": -0.004057267284595278,
            "81": -0.007208190773662195,
            "82": 0.007056016394852399,
            "83": 0.008787745199291713,
            "84": -0.00799184487845113,
            "85": 0.0022874487233297863,
            "86": 0.011506005243283792,
            "87": -0.006692628332544697,
            "88": 0.0007315591253188038,
            "89": -0.018111383841696263,
            "90": -0.026762609506686894,
            "91": -0.014908558152524476,
            "92": -0.01201462609852772,
            "93": -0.0007056324780414093,
            "94": 0.0018490558598733965,
            "95": 0.000458597001579828,
            "96": -0.0033083027317794564,
            "97": 0.011711119888300306,
            "98": -0.011126990892001415,
            "99": -0.009242463998091421,
            "100": -0.011172515395324531,
            "101": -0.0037304806154411195,
            "102": -0.004866223506048088,
            "103": -0.012136468946196056,
            "104": -0.0055682134833617255,
            "105": -0.006122597329921225,
            "106": 0.004574691283485075,
            "107": -0.009424919736220182,
            "108": -0.018837533360413976,
            "109": -0.006591448492999787,
            "110": 0.008295229631343326,
            "111": 0.0032489485365940827,
            "112": -0.00307770667439933,
            "113": -0.009065771816876693,
            "114": 0.01094198926043251,
            "115": 0.000530505466710901,
            "116": -0.027856794274362915,
            "117": -0.02151660752148579,
            "118": 0.0023653130983196696,
            "119": 0.004366945504975735,
            "120": 0.022745544725894497,
            "121": -0.004974837732352456,
            "122": 0.006686196912327074,
            "123": 0.006084802818325756,
            "124": -0.0028726832428527457,
            "125": 0.0006870169120759472,
            "126": -0.018268518263775096,
            "127": -0.009928908042981159,
            "128": 0.013768521626863144,
            "129": -0.005285888380853513,
            "130": 0.0001644216863098417,
            "131": 0.00002947356648996175,
            "132": 0.0017785938127106266,
            "133": -0.004307867407675059,
            "134": 0.0038471281752011284,
            "135": 0.001903553077139733,
            "136": 0.009946459872919691,
            "137": -0.012571719814873447,
            "138": -0.0042693914387225765,
            "139": 0.010327120406967337,
            "140": -0.020189478538976013,
            "141": 0.006284761781880008,
            "142": 0.001451612817836825,
            "143": -0.011863904648035528,
            "144": 0.0029820919974978314,
            "145": -0.04876599936617185,
            "146": -0.013707833910075936,
            "147": -0.01380539488261851,
            "148": -0.03248486572105113,
            "149": -0.03577234352473005,
            "150": 0.00379679109503502,
            "151": 0.0028698131983846886,
            "152": 0.019355025041531818,
            "153": -0.028080991383053002,
            "154": -0.03538511543049103,
            "155": 0.005435801598567314,
            "156": -0.05585664917212798,
            "157": -0.007166974574927163,
            "158": 0.006511165572371932,
            "159": -0.004722062428261545,
            "160": -0.01183107037745419,
            "161": 0.010168260975264026,
            "162": -0.01589406375417016,
            "163": 0.002988306296341879,
            "164": -0.028057567633923988,
            "165": 0.007010667274012629,
            "166": -0.010201660492066056,
            "167": -0.006348018466330801,
            "168": 0.025974594016754605,
            "169": -0.045765296353546925,
            "170": -0.0005168039876969989,
            "171": 0.003982897094128297,
            "172": 0.004365076543148711,
            "173": -0.0028318018145146494,
            "174": -0.001664178549374564,
            "175": 0.015610227711354514,
            "176": 0.08977050653170021,
            "177": 0.056575645398883045,
            "178": 0.06054447090249407,
            "179": 0.03160242484002489,
            "180": -0.00005818815562675845,
            "181": -0.007264162073814773,
            "182": -0.009174846018239986,
            "183": 0.008637329410841749,
            "184": 0.10593463423124234,
            "185": 0.07180467929839572,
            "186": 0.08058050680648714,
            "187": 0.04094341468915592,
            "188": 0.00758809007180508,
            "189": 0.004956538382120075,
            "190": 0.00013508818729341768,
            "191": 0.0029579856245575656,
            "192": -0.07628547205665355,
            "193": -0.03147066922487087,
            "194": -0.01906568366667609,
            "195": 0.008786172093929569,
            "196": -0.03806663871605869,
            "197": -0.00724431896269807,
            "198": -0.00903070262980781,
            "199": 0.0027430408143576785,
            "200": -0.06478892915221048,
            "201": -0.04055141338506826,
            "202": -0.06082177674587961,
            "203": -0.03232012153813162,
            "204": -0.07375071064796006,
            "205": -0.02710099410100014,
            "206": 0.05499545789461597,
            "207": 0.13860891680413068,
            "208": 0.12520522475071272,
            "209": 0.0847710466710789,
            "210": 0.06478417978397515,
            "211": 0.064941618610065
          }
        },
        {
          "sx": 1,
          "sy": 1,
          "depth": 212,
          "w": {
            "0": 0.07298516974679198,
            "1": 0.119638549807972,
            "2": 0.13391738158172883,
            "3": 0.10812949985417733,
            "4": -0.08971022427294935,
            "5": -0.07962543160961207,
            "6": -0.012439502901240383,
            "7": 0.02167159804447209,
            "8": 0.031198544878661277,
            "9": 0.01846210384497201,
            "10": 0.011245933493140507,
            "11": 0.01325017537636647,
            "12": -0.05030421454612081,
            "13": 0.005812339156946788,
            "14": 0.047248288509679916,
            "15": 0.066765316508044,
            "16": 0.05148710082593295,
            "17": 0.02066045805913166,
            "18": -0.009341665297183343,
            "19": -0.006039233834434227,
            "20": -0.07473858756599765,
            "21": -0.014439480614464206,
            "22": 0.03733326303319758,
            "23": 0.02984276791431275,
            "24": 0.014018946798950164,
            "25": 0.02487219068900336,
            "26": -0.015885885581918686,
            "27": -0.014998656336836917,
            "28": -0.02608890175203035,
            "29": 0.0057519283372837494,
            "30": 0.09506597804084686,
            "31": 0.07523621807822595,
            "32": -0.010063951958000967,
            "33": 0.09294252897549357,
            "34": 0.03399331739571023,
            "35": 0.018768266130597587,
            "36": 0.02392997917231296,
            "37": 0.04911656382206487,
            "38": 0.0791710246053942,
            "39": 0.033189063121697934,
            "40": 0.049527415846858006,
            "41": 0.0828211409676385,
            "42": 0.025250367739172958,
            "43": 0.012580799980977931,
            "44": -0.025959328668129014,
            "45": -0.011406725954067557,
            "46": 0.0098491899385132,
            "47": -0.01832530583705443,
            "48": -0.00036494673519617835,
            "49": 0.025686740321953394,
            "50": -0.016230520831318804,
            "51": -0.015641564911378372,
            "52": -0.0746444916626278,
            "53": -0.10687238127166311,
            "54": -0.006253910140251964,
            "55": -0.010816254127507871,
            "56": 0.09108597660711801,
            "57": 0.004698913640176991,
            "58": 0.0038919416252197756,
            "59": 0.011103951390415716,
            "60": -0.10166154566745551,
            "61": -0.08919737099810827,
            "62": -0.03366488282422839,
            "63": -0.02091528033896152,
            "64": 0.0330834627089009,
            "65": -0.0018142859020431864,
            "66": 0.0061914243551684026,
            "67": -0.0040191321785563,
            "68": -0.09564927085377473,
            "69": -0.04800426016742352,
            "70": -0.007448666748079596,
            "71": 0.007729100677359753,
            "72": 0.05996035935377906,
            "73": 0.00826101088953952,
            "74": 0.0027710445071031215,
            "75": -0.003959816239568154,
            "76": -0.04993539046989911,
            "77": -0.011920318639719868,
            "78": -0.007426482162639937,
            "79": 0.00017475376752532995,
            "80": 0.0591154238500424,
            "81": 0.042616296584769515,
            "82": 0.0031736382333993696,
            "83": -0.00016683898012787997,
            "84": -0.06345455732631076,
            "85": -0.007456645714105865,
            "86": -0.002276385962139151,
            "87": 0.0029037292397398316,
            "88": 0.04004198473660257,
            "89": 0.03682571780237114,
            "90": 0.0064495553910414085,
            "91": 0.017227354716415177,
            "92": -0.07417396040685587,
            "93": 0.0003025035468569845,
            "94": -0.005158756007027086,
            "95": -0.017609003762846798,
            "96": 0.09374184779682311,
            "97": 0.02055788613437123,
            "98": -0.012866874164836162,
            "99": -0.008860843401548458,
            "100": -0.1524176126638877,
            "101": -0.07684010869014572,
            "102": -0.021895951044631212,
            "103": -0.0012928968794930907,
            "104": 0.05676982011042651,
            "105": 0.003649699278466955,
            "106": 0.02416093454679709,
            "107": 0.0034863733458422963,
            "108": -0.11541382824823397,
            "109": -0.022130339853136456,
            "110": -0.010840921298584742,
            "111": 0.011943444190169464,
            "112": 0.02424743870329864,
            "113": 0.002308154272489753,
            "114": 0.001943703008569868,
            "115": 0.010797992736929744,
            "116": -0.10945838085892862,
            "117": 0.005945993061958098,
            "118": 0.017968830367285533,
            "119": -0.021296210703545652,
            "120": 0.023293198032861454,
            "121": 0.02086284448267728,
            "122": 0.024249639690624138,
            "123": -0.011154114994778575,
            "124": -0.03454974271877141,
            "125": -0.003523493517207658,
            "126": 0.016423998774070258,
            "127": 0.006204441614764687,
            "128": -0.016718675723325683,
            "129": -0.021508058491366572,
            "130": -0.014124234691719946,
            "131": 0.008317602739731518,
            "132": -0.07408144843318001,
            "133": 0.02600099057028973,
            "134": 0.015208626881776858,
            "135": 0.006629045574940366,
            "136": -0.02918472630033065,
            "137": 0.03033475800550678,
            "138": 0.008174914512911101,
            "139": -0.022862357222473283,
            "140": -0.06399796795382626,
            "141": 0.02104445033106567,
            "142": 0.00849251967878119,
            "143": 0.0022383684336944602,
            "144": 0.0028012630504029704,
            "145": -0.022697976927651492,
            "146": -0.000738966153725092,
            "147": 0.0014604032806400115,
            "148": -0.1717804065131945,
            "149": -0.01641605046481763,
            "150": 0.010571116898421891,
            "151": -0.0031217001911726335,
            "152": -0.005137606081780367,
            "153": -0.05491878455218928,
            "154": -0.0013841518848111403,
            "155": -0.012604161031039661,
            "156": -0.27785371628945027,
            "157": -0.04063110797432959,
            "158": -0.005174279246821973,
            "159": 0.00043648593695725963,
            "160": 0.09266254971791943,
            "161": 0.030216773311600942,
            "162": 0.00978159816339014,
            "163": -0.01511317663066899,
            "164": -0.09873775058795334,
            "165": -0.023766152454728136,
            "166": -0.022579663752787416,
            "167": 0.0009047421054435073,
            "168": 0.21127468736128166,
            "169": 0.062418542015939917,
            "170": -0.036810849450416065,
            "171": -0.06489314392786004,
            "172": -0.05118568112673933,
            "173": -0.01684300320707882,
            "174": 0.004365257910884426,
            "175": 0.007652952536343794,
            "176": 0.1938377075552548,
            "177": 0.10878803142098656,
            "178": 0.0030534446034320133,
            "179": 0.010386273666658292,
            "180": -0.034274113929616344,
            "181": -0.03420471501364096,
            "182": -0.0010198065518462944,
            "183": 0.009808551406470313,
            "184": 0.16532054642890062,
            "185": 0.10493086062470383,
            "186": 0.02629777499028876,
            "187": 0.020712223151273083,
            "188": -0.1305994964434474,
            "189": -0.13886208524760224,
            "190": -0.044023946743268746,
            "191": 0.0026966294530992386,
            "192": 0.01959692546496752,
            "193": 0.06449804868251634,
            "194": 0.017959699789129806,
            "195": -0.01085792220082889,
            "196": -0.24056469252716386,
            "197": -0.06525707071871666,
            "198": -0.012644497356504162,
            "199": -0.017473865093178075,
            "200": -0.03539346243437527,
            "201": 0.031157721219200428,
            "202": 0.06812584134984366,
            "203": 0.037781030981492054,
            "204": 0.06634063026919786,
            "205": 0.010545611623637456,
            "206": 0.30315433287529575,
            "207": 0.09423008427727028,
            "208": -0.03446479074432,
            "209": -0.09009274404366666,
            "210": -0.027890534634865686,
            "211": -0.0013920303624543769
          }
        },
        {
          "sx": 1,
          "sy": 1,
          "depth": 212,
          "w": {
            "0": -0.11409084543205944,
            "1": -0.17848552288559535,
            "2": -0.054164526933858946,
            "3": -0.039732334088384884,
            "4": 0.24650738707631373,
            "5": 0.1776940618060692,
            "6": 0.15648262238909927,
            "7": 0.12347573080920049,
            "8": -0.02332448833304996,
            "9": -0.029725220284141006,
            "10": -0.003584911865079633,
            "11": 0.0037246855277615403,
            "12": 0.19475390405255663,
            "13": 0.04909865630540677,
            "14": 0.126610828830804,
            "15": 0.11521637225487101,
            "16": -0.10612153150222765,
            "17": -0.06313756957094588,
            "18": -0.007669769830780462,
            "19": 0.003269999572405959,
            "20": 0.09513938066013435,
            "21": 0.06235540908495886,
            "22": 0.007795980579618131,
            "23": 0.020885293628203832,
            "24": -0.16496682303279717,
            "25": -0.020095926287158533,
            "26": 0.019174196217705077,
            "27": 0.010212842247610243,
            "28": 0.2000331601694795,
            "29": 0.11265117074096512,
            "30": -0.008974771061270202,
            "31": -0.006229069510194146,
            "32": -0.2922015399222508,
            "33": -0.033332468058003266,
            "34": 0.004778426599469362,
            "35": -0.018619185122150897,
            "36": 0.04326738449259274,
            "37": 0.04817907379709002,
            "38": 0.006834939830327039,
            "39": 0.011344728694690531,
            "40": -0.4036850477246241,
            "41": -0.08931106969916987,
            "42": -0.015472808831599806,
            "43": -0.02172558158397967,
            "44": 0.09303165451293681,
            "45": 0.012798080706842288,
            "46": -0.02195507659995356,
            "47": 0.007908608919111904,
            "48": -0.1509830332908485,
            "49": -0.03822057763469105,
            "50": 0.003268287223378728,
            "51": -0.0043238195992088765,
            "52": 0.03637188582352984,
            "53": 0.0535237352063507,
            "54": 0.016608206184753675,
            "55": -0.011790795639343191,
            "56": -0.22010852797334032,
            "57": -0.04450097571195579,
            "58": -0.0005955895032824913,
            "59": 0.010196924283394734,
            "60": 0.08431716735021687,
            "61": 0.05363067547920473,
            "62": 0.024459015896751816,
            "63": -0.018709594969254676,
            "64": -0.08292311136358686,
            "65": -0.029571802800745076,
            "66": -0.008945122932129932,
            "67": -0.003080087290606216,
            "68": 0.045070485453183214,
            "69": -0.010723793366845664,
            "70": 0.00310121851330886,
            "71": 0.0026035871976281847,
            "72": -0.14522534478038543,
            "73": -0.025269433113564457,
            "74": -0.01384471682454498,
            "75": 0.002699509670107682,
            "76": 0.03675011946947586,
            "77": -0.009800852260667138,
            "78": 0.020971511157745835,
            "79": -0.002230404823901911,
            "80": -0.08007761883110569,
            "81": -0.025180899753620197,
            "82": -0.009270680453591078,
            "83": 0.01220464555290572,
            "84": 0.06516815758576885,
            "85": -0.008967480476197404,
            "86": 0.0004243146723563649,
            "87": 0.002799798176938764,
            "88": -0.20990857702351096,
            "89": -0.12399778821165267,
            "90": -0.08188861576331825,
            "91": -0.011267221774453043,
            "92": 0.031613289684567905,
            "93": -0.016393964804501976,
            "94": 0.007055860657223664,
            "95": -0.014573105381857451,
            "96": -0.13124001147374634,
            "97": -0.01959694586104935,
            "98": 0.010194530812200928,
            "99": -0.002489739741735852,
            "100": 0.11814910631783301,
            "101": -0.018330838444302514,
            "102": -0.007324789566156525,
            "103": -0.019483877918896744,
            "104": -0.15091733283192357,
            "105": -0.04746004939407152,
            "106": -0.01800794791523555,
            "107": -0.010200249293156412,
            "108": 0.09497673910043622,
            "109": -0.03571010404009923,
            "110": -0.009690284315686137,
            "111": 0.007950882799046814,
            "112": -0.10720628893910225,
            "113": -0.04728898666314512,
            "114": -0.002563077048542465,
            "115": -0.007500960564340406,
            "116": 0.12306893163621456,
            "117": -0.050817792208775185,
            "118": -0.017183257468915608,
            "119": -0.004610385143838473,
            "120": -0.09122677337268587,
            "121": -0.06111664679418802,
            "122": 0.003237315838010812,
            "123": -0.0018177994756969243,
            "124": 0.058566863854078395,
            "125": -0.031026249469609718,
            "126": -0.03579545310859591,
            "127": 0.003956980500595348,
            "128": -0.15034797102624214,
            "129": -0.1422843907579208,
            "130": -0.05168688740730282,
            "131": -0.010334565068704234,
            "132": 0.036751900540200735,
            "133": -0.05992228691094032,
            "134": -0.0010383401043255933,
            "135": 0.009533240066941956,
            "136": -0.1023322211647982,
            "137": -0.12079904008636316,
            "138": -0.028927126622730472,
            "139": 0.0017937199096553988,
            "140": 0.1659632415521658,
            "141": -0.038170025149177174,
            "142": -0.013537164676134096,
            "143": 0.00075995907470709,
            "144": -0.03916209922346533,
            "145": 0.0028922810273477127,
            "146": -0.03140060514747733,
            "147": -0.024803083636927157,
            "148": 0.18651139643104123,
            "149": 0.027952472016770404,
            "150": 0.019067909637903953,
            "151": -0.012380976290154657,
            "152": 0.014518224092321685,
            "153": 0.09845976642159592,
            "154": 0.06802807130098318,
            "155": 0.001537175549166528,
            "156": 0.2540911872923432,
            "157": 0.03053723947857984,
            "158": -0.0006008049311080632,
            "159": -0.005088450624442487,
            "160": -0.042667929263102186,
            "161": 0.030720913480105593,
            "162": 0.11760208380401381,
            "163": 0.05164649615905146,
            "164": 0.04700064847994919,
            "165": -0.0143476184514108,
            "166": -0.03324685454834754,
            "167": -0.00331752838641648,
            "168": -0.23074319975159546,
            "169": -0.09655627968968188,
            "170": 0.1272431173585472,
            "171": 0.14520621816767307,
            "172": 0.011931552977834511,
            "173": 0.04297918108546668,
            "174": 0.018647596510479935,
            "175": 0.0009380009833893893,
            "176": -0.24327607290522282,
            "177": -0.14730816848257097,
            "178": -0.01654018117694678,
            "179": 0.019344817611949134,
            "180": 0.0003596296844369862,
            "181": 0.027406652470260265,
            "182": -0.011197117033626974,
            "183": -0.0015201269989953442,
            "184": -0.21729949335312068,
            "185": -0.23664282114001384,
            "186": -0.09511542072632681,
            "187": -0.0637038929382982,
            "188": 0.11202719506277826,
            "189": 0.1739739234294755,
            "190": 0.05806308348285267,
            "191": 0.06572111055994682,
            "192": -0.1110500217141005,
            "193": -0.01593001947120809,
            "194": -0.004844065124682946,
            "195": 0.00837386811837805,
            "196": 0.09371122354444703,
            "197": 0.021741559681858574,
            "198": 0.03179118850074398,
            "199": 0.01125094150447713,
            "200": 0.3815005764998636,
            "201": 0.15490709055254048,
            "202": 0.08780935280500968,
            "203": 0.05672376953655458,
            "204": 0.03179165925064809,
            "205": 0.10143457360713345,
            "206": -0.33392369282100715,
            "207": -0.21182921477540786,
            "208": -0.10683549751628531,
            "209": -0.06857264670731698,
            "210": -0.08700170042059475,
            "211": -0.15734934511710907
          }
        },
        {
          "sx": 1,
          "sy": 1,
          "depth": 212,
          "w": {
            "0": -0.014540257152423136,
            "1": -0.008147044770277905,
            "2": 0.004659599225471519,
            "3": -0.0031673272282706838,
            "4": -0.037818462410845695,
            "5": -0.0365758058319183,
            "6": -0.02668472999589784,
            "7": -0.028461416413691293,
            "8": -0.0075916379486886025,
            "9": 0.0035506549552820235,
            "10": -0.00030320453069624265,
            "11": 0.0031998001571889177,
            "12": -0.04139435765488777,
            "13": -0.045298713975717865,
            "14": -0.008491888164812193,
            "15": -0.022167288854060756,
            "16": -0.008258535420461044,
            "17": 0.0004900058048385017,
            "18": -0.009013465369083025,
            "19": 0.016345309662722733,
            "20": -0.03304530289005192,
            "21": -0.031362299047643746,
            "22": -0.021858880535091014,
            "23": -0.0018911884270540677,
            "24": -0.008786337877274958,
            "25": 0.0016627333530388308,
            "26": -0.009058844131093861,
            "27": -0.0065765067639244655,
            "28": -0.055254557810163175,
            "29": -0.04914010294109222,
            "30": 0.01123000515041972,
            "31": -0.0007935050784244717,
            "32": 0.00612485099085413,
            "33": 0.0036382135416558378,
            "34": 0.0021104965430474897,
            "35": 0.012445018587117008,
            "36": -0.01734018844929697,
            "37": -0.010844469183291752,
            "38": -0.0018279918352493059,
            "39": -0.009459513533173302,
            "40": 0.017638567330824494,
            "41": -0.002298275019983352,
            "42": -0.0076916927899752085,
            "43": 0.005971853850792147,
            "44": -0.022592437275009366,
            "45": -0.007893616295831674,
            "46": -0.00473098067192932,
            "47": 0.005173624312458226,
            "48": 0.0015902438769347387,
            "49": -0.002122518571207202,
            "50": -0.0002175432278399539,
            "51": 0.007843616297055895,
            "52": -0.005505044180768195,
            "53": -0.008509109270047756,
            "54": 0.010118390605964993,
            "55": 0.0007179166902640078,
            "56": 0.004192234997633853,
            "57": -0.0020514105654191195,
            "58": 0.005393630533821605,
            "59": -0.00070798902272917,
            "60": 0.002947686855186369,
            "61": -0.0006997863565025084,
            "62": 0.0027203293353867024,
            "63": 0.006722546703694541,
            "64": -0.006401612605458359,
            "65": -0.0033113166101243724,
            "66": -0.010996465411015078,
            "67": 0.0014802055907370405,
            "68": 0.004759504166555282,
            "69": -0.0038410013463282605,
            "70": 0.0020615643724661847,
            "71": 0.01234589336905328,
            "72": 0.008186065686476965,
            "73": 0.0035871696323413263,
            "74": -0.0006183348665009552,
            "75": -0.016648163168280855,
            "76": -0.00788425782846528,
            "77": -0.0006712111053687923,
            "78": -0.004900425753560649,
            "79": -0.0041407516454057885,
            "80": -0.007980547090431885,
            "81": 0.0045928148611346165,
            "82": 0.0063762320998087835,
            "83": 0.007412410692469938,
            "84": -0.008854790150538012,
            "85": -0.008168645569760007,
            "86": 0.009754579571922233,
            "87": 0.005779055486333446,
            "88": 0.0002472684983028594,
            "89": -0.0009460683987206371,
            "90": 0.011782889057224034,
            "91": -0.011086965338003522,
            "92": -0.003677106660870051,
            "93": 0.011494526632210067,
            "94": 0.004668765556225157,
            "95": 0.009749359532637007,
            "96": 0.007153680564988365,
            "97": 0.00014792482241825645,
            "98": 0.01257973820078621,
            "99": 0.0007899117778711722,
            "100": -0.009628503955877029,
            "101": -0.005253215677761482,
            "102": 0.013256618754048191,
            "103": -0.004536033988007614,
            "104": -0.0013362171982434447,
            "105": 0.005156438143835798,
            "106": 0.01404254456316768,
            "107": -0.009344232575236876,
            "108": -0.012417169243721833,
            "109": 0.0124013413869871,
            "110": 0.025055544671684138,
            "111": 0.005542853731318259,
            "112": 0.006822214464822526,
            "113": -0.010556840890756845,
            "114": 0.0038465784093805536,
            "115": 0.0034910377635327507,
            "116": -0.011632527657080153,
            "117": -0.005082008920137116,
            "118": -0.004212628318152127,
            "119": -0.0028567626972941366,
            "120": 0.010954323214619439,
            "121": -0.00009377160668886194,
            "122": 0.006468054684345493,
            "123": -0.00412103432735017,
            "124": -0.005941088486254261,
            "125": -0.0066776288446158336,
            "126": 0.00628168679613929,
            "127": 0.0027298725694340094,
            "128": -0.0012813343918160144,
            "129": 0.010589452622840384,
            "130": 0.0026843668568169938,
            "131": 0.0013045627955396255,
            "132": 0.004688144931061055,
            "133": -0.003967502909867976,
            "134": 0.009007191262827403,
            "135": -0.007992190633779928,
            "136": -0.007817699060396636,
            "137": 0.0018403515078072575,
            "138": -0.007318176760059307,
            "139": -0.004341476393582634,
            "140": -0.0008994921611621376,
            "141": -0.0026940548704820987,
            "142": -0.005108963859656442,
            "143": 0.0008903061695424005,
            "144": -0.01263488820321752,
            "145": -0.017882716051033802,
            "146": -0.0014210103083488748,
            "147": -0.006367723621528964,
            "148": -0.006813862138469706,
            "149": 0.005206827071074248,
            "150": -0.008171336700425762,
            "151": -0.0064891012876635255,
            "152": 0.007090808423282432,
            "153": -0.014854558342427911,
            "154": 0.0005287445723384629,
            "155": -0.022399002516332395,
            "156": -0.012096022882342392,
            "157": -0.013799653252211875,
            "158": 0.002596701882825686,
            "159": -0.00885767055328249,
            "160": 0.028345793201313467,
            "161": 0.016484309024687793,
            "162": -0.010958159217661792,
            "163": -0.0026995170860168284,
            "164": 0.00175442078986107,
            "165": -0.005157682770238253,
            "166": -0.007673394621640033,
            "167": 0.0008593094886969195,
            "168": 0.029915842660423363,
            "169": 0.01666570489327785,
            "170": 0.002990643970159526,
            "171": -0.016946745231384192,
            "172": -0.005090061812751129,
            "173": 0.004233190238089699,
            "174": 0.001588294625082392,
            "175": -0.0015735471483550741,
            "176": 0.05465204800553057,
            "177": 0.014817501695118576,
            "178": -0.013180049373612258,
            "179": 0.005374548648291661,
            "180": 0.002073340209902962,
            "181": 0.012363650222663248,
            "182": -0.010123829807962118,
            "183": 0.0031600700199944207,
            "184": 0.009643348667539436,
            "185": 0.014682285693971366,
            "186": 0.0016326937408650535,
            "187": 0.018017480338596695,
            "188": -0.016339449807386813,
            "189": -0.011366539399352737,
            "190": -0.003573415635695179,
            "191": -0.007697373365094513,
            "192": -0.008137841218922965,
            "193": -0.012255363701991132,
            "194": -0.0031788878554169886,
            "195": -0.002597573134646825,
            "196": -0.019122691861856327,
            "197": 0.008444420437525618,
            "198": 0.004578327221963331,
            "199": 0.0035069606265187873,
            "200": 0.0034845567536329514,
            "201": -0.0016354963786777126,
            "202": 0.008537263237956411,
            "203": 0.015586854765708699,
            "204": 0.015859025124990704,
            "205": 0.0016123438999599675,
            "206": 0.02663603052521557,
            "207": 0.03203445322858763,
            "208": 0.03462464970576007,
            "209": 0.02894406801531726,
            "210": 0.04046059782080109,
            "211": 0.03687781860813441
          }
        },
        {
          "sx": 1,
          "sy": 1,
          "depth": 212,
          "w": {
            "0": -0.007691256141653553,
            "1": 0.003207960009778638,
            "2": -0.003955214416775863,
            "3": -0.003609105619737218,
            "4": 0.0005082196505048694,
            "5": 0.0011561816544441515,
            "6": -0.0057960318488327915,
            "7": -0.013845853755309877,
            "8": -0.012304305561444788,
            "9": 0.00016319173628026641,
            "10": -0.005660053216890259,
            "11": -0.0009899766924990224,
            "12": -0.011056345763738321,
            "13": -0.004427282800273216,
            "14": 0.00385037654786063,
            "15": 0.006174767925772505,
            "16": -0.0033515723820547075,
            "17": -0.0053938641618053755,
            "18": -0.008166228446975943,
            "19": -0.005478816808491157,
            "20": -0.011916100206535803,
            "21": -0.0026572620865566404,
            "22": 0.0017581639750307429,
            "23": 0.008519922647206808,
            "24": 0.0018341508585365462,
            "25": -0.006001950614252766,
            "26": -0.0023558372709371034,
            "27": 0.0034082945413559927,
            "28": 0.0033773394860180457,
            "29": -0.0044223675854576745,
            "30": -0.0011853452446877128,
            "31": 0.0043333076652649575,
            "32": -0.0026897345049205763,
            "33": -0.007047836576227583,
            "34": -0.007701482502821534,
            "35": -0.007105966636094081,
            "36": -0.007336604144092136,
            "37": -0.011094504225104454,
            "38": -0.008991877265644679,
            "39": 0.00046571777987944167,
            "40": 0.00669889064532557,
            "41": 0.0007087490416592855,
            "42": 0.004598852833489271,
            "43": 0.00502034465123261,
            "44": -0.0024484716097245133,
            "45": -0.009296790300551413,
            "46": 0.00043168072706152165,
            "47": -0.00024360073248968253,
            "48": 0.0039507653551357266,
            "49": 0.00158353303855235,
            "50": -0.0031762957200555074,
            "51": 0.0008362104550740587,
            "52": 0.00012852270375573714,
            "53": 0.006502301865592761,
            "54": 0.0016105184519709772,
            "55": 0.005469132902071507,
            "56": -0.00158790400626551,
            "57": 0.003974230766389851,
            "58": 0.002455624865780497,
            "59": -0.013489358219365666,
            "60": -0.0032331443056804405,
            "61": -0.00007284975109796389,
            "62": -0.007059656196608726,
            "63": 0.0018011625514879391,
            "64": -0.0036639587208553994,
            "65": 0.00023468541667229082,
            "66": 0.011321751338148245,
            "67": 0.0033131267479763467,
            "68": -0.008214266423009039,
            "69": 0.0013079096215341548,
            "70": -0.007654344308282315,
            "71": 0.0010783829182738486,
            "72": -0.019655414444015945,
            "73": -0.0013181619055994127,
            "74": -0.008794415101028717,
            "75": -0.00014865446875759943,
            "76": -0.008379796270616743,
            "77": -0.0064560442540509645,
            "78": -0.004163694975849707,
            "79": 0.011365805106649881,
            "80": 0.00012168966502312977,
            "81": -0.007435754244403938,
            "82": -0.00212474226245141,
            "83": -0.0021981282374493203,
            "84": -0.0005096651462897966,
            "85": 0.001421206406906777,
            "86": -0.006188120443437018,
            "87": -0.008842781337161399,
            "88": -0.006626739732261461,
            "89": 0.0024339136869172317,
            "90": -0.011687488831507975,
            "91": 0.006568023734246544,
            "92": -0.0009333324750957637,
            "93": -0.006134578785804637,
            "94": 0.010308170108332263,
            "95": 0.001270840018280861,
            "96": -0.012352553791180197,
            "97": 0.00493030806670093,
            "98": 0.004840442111280677,
            "99": 0.000814704421019174,
            "100": -0.0007545612589208239,
            "101": 0.004939086354058589,
            "102": -0.004551612135033188,
            "103": 0.0047976828169250816,
            "104": 0.008142721624171657,
            "105": -0.0034106713716614894,
            "106": 0.006596967094083922,
            "107": 0.006104131800969279,
            "108": -0.0013776149913943877,
            "109": -0.0008337608305914124,
            "110": -0.0003358736411199999,
            "111": 0.006548336943034208,
            "112": 0.011185625782512242,
            "113": -0.0006243218351040465,
            "114": -0.0034039937451638426,
            "115": 0.0077510969776265265,
            "116": -0.005946242147486534,
            "117": -0.00835389569930693,
            "118": 0.0013638089166318808,
            "119": 0.005730233725307304,
            "120": 0.004256808754488954,
            "121": -0.0033462562998185863,
            "122": -0.0044767686811309,
            "123": -0.008767661123999744,
            "124": 0.0061728329460995265,
            "125": -0.000959716993242258,
            "126": 0.006439269357763261,
            "127": 0.0048090179098930225,
            "128": -0.009373714733055392,
            "129": 0.0019235773805678265,
            "130": -0.008026146957059077,
            "131": -0.007590316602563285,
            "132": 0.0021131084700312885,
            "133": -0.016263675620721712,
            "134": -0.004020676665354881,
            "135": -0.009341418916474286,
            "136": 0.00417895798957535,
            "137": 0.0009911835136554954,
            "138": 0.005158789674240669,
            "139": -0.015208323289562366,
            "140": 0.00720951642862343,
            "141": 0.002024745628635866,
            "142": 0.004623289451475785,
            "143": 0.0028203296347021605,
            "144": -0.008643136594345329,
            "145": 0.003628428681029726,
            "146": -0.004760564344764625,
            "147": -0.00005331617172796684,
            "148": 0.004877867985271163,
            "149": 0.01126945340909576,
            "150": 0.0008454324976545599,
            "151": 0.0013633589000414787,
            "152": -0.007332687120852733,
            "153": 0.003718613882696762,
            "154": 0.00015688468363038975,
            "155": 0.002632512042685425,
            "156": -0.008774965665099353,
            "157": 0.0034769045591446627,
            "158": 0.006327870155706754,
            "159": -0.0006178595215214305,
            "160": -0.00065746084529503,
            "161": -0.012613639537855787,
            "162": 0.010509782450299503,
            "163": -0.00037766752648640584,
            "164": -0.009222705251485911,
            "165": 0.0063234799342455515,
            "166": 0.004289131487085912,
            "167": -0.003284816187541322,
            "168": 0.010031710076875424,
            "169": -0.013001046882103698,
            "170": 0.0034714463844544986,
            "171": -0.02001522928375287,
            "172": -0.0075145531731385,
            "173": 0.006011928349885538,
            "174": -0.008973956595764514,
            "175": -0.008641555138918506,
            "176": -0.0020445372347719097,
            "177": -0.01688262538722854,
            "178": -0.0022207726032213012,
            "179": -0.006353924112137011,
            "180": 0.002025876749360182,
            "181": -0.010196128588566524,
            "182": -0.0017919431786845256,
            "183": -0.01107662772128601,
            "184": -0.007843343363841529,
            "185": 0.00805199079759211,
            "186": -0.003172798180127747,
            "187": -0.00007218219876390282,
            "188": 0.00499595076266703,
            "189": -0.004907871150967598,
            "190": -0.00396626215242805,
            "191": -0.0004403018310149439,
            "192": -0.009022303078017203,
            "193": -0.00921998298690229,
            "194": -0.007034833381622876,
            "195": -0.002152517452732675,
            "196": -0.0073763919759209685,
            "197": 0.015274088139882938,
            "198": 0.00992326616056971,
            "199": 0.008070112451293911,
            "200": -0.00712464009499237,
            "201": -0.00857065001768581,
            "202": 0.0018272037779060817,
            "203": -0.011056123363267842,
            "204": -0.013713594242297768,
            "205": -0.00011672770115734534,
            "206": -0.011323641975793419,
            "207": -0.015889005288784824,
            "208": -0.008181781632931534,
            "209": 0.0030221305721330875,
            "210": -0.0027208501515465513,
            "211": -0.00654427354813367
          }
        },
        {
          "sx": 1,
          "sy": 1,
          "depth": 212,
          "w": {
            "0": 0.002462129459536583,
            "1": 0.008025638619772197,
            "2": 0.013564607243714255,
            "3": -0.001352870072330195,
            "4": -0.18575732665116151,
            "5": -0.18262238976969805,
            "6": -0.09760335758128677,
            "7": -0.11839988138342325,
            "8": -0.020565717232999485,
            "9": 0.005894954220904743,
            "10": -0.004830235089687211,
            "11": -0.002786850010059325,
            "12": -0.13023341446464473,
            "13": -0.03094228506811543,
            "14": -0.06814547611621827,
            "15": -0.06615888363781199,
            "16": -0.003987246345288605,
            "17": 0.0005243366137697806,
            "18": 0.0046255110249319355,
            "19": -0.012425522658632731,
            "20": -0.13161610821633382,
            "21": -0.10059801464591177,
            "22": -0.02819282088597821,
            "23": 0.015721580428313425,
            "24": 0.029276687789555746,
            "25": -0.03119873360038184,
            "26": -0.008973251523904787,
            "27": -0.007393323282145339,
            "28": -0.15931172539368105,
            "29": -0.08881981941742048,
            "30": -0.018089774880419615,
            "31": -0.0031398770449456597,
            "32": 0.06807593101094914,
            "33": 0.014665243311061166,
            "34": -0.02204834627062457,
            "35": 0.008726639484312555,
            "36": -0.09696929692576477,
            "37": -0.033773253137071815,
            "38": -0.008035628452663212,
            "39": -0.002279995050199852,
            "40": 0.08759886597748051,
            "41": -0.0024548087094339844,
            "42": -0.025407732932251268,
            "43": -0.008154429887423752,
            "44": -0.12144090730857686,
            "45": -0.038676725563974244,
            "46": -0.019225348870912047,
            "47": -0.02183159281802923,
            "48": 0.019483480381767008,
            "49": -0.0007605116108277661,
            "50": -0.007368282174176074,
            "51": 0.0012804123030325174,
            "52": -0.039518391698589304,
            "53": -0.02525763664501378,
            "54": 0.0019228700101711386,
            "55": 0.008356372358041876,
            "56": 0.046392483420214965,
            "57": -0.006380874676456814,
            "58": 0.001350423830699607,
            "59": -0.004687474993621011,
            "60": -0.046829754195909644,
            "61": -0.034880385775886036,
            "62": 0.001808936419493028,
            "63": 0.002526235640237437,
            "64": -0.04211759747439633,
            "65": -0.016916259769035085,
            "66": -0.000030202341043153645,
            "67": -0.007677028996679397,
            "68": -0.016949976495993693,
            "69": 0.00500862353538255,
            "70": 0.0012159956690668255,
            "71": -0.00441156581060125,
            "72": 0.025707687878920162,
            "73": -0.01361678081201642,
            "74": -0.012561052683589152,
            "75": 0.004649346707648915,
            "76": -0.021498846513272638,
            "77": 0.0002948718225759825,
            "78": -0.004544742525631314,
            "79": -0.0027298277425231885,
            "80": 0.02338979682827021,
            "81": 0.0010526606618215812,
            "82": 0.0039920009116473695,
            "83": -0.00021787323138305664,
            "84": -0.022563077075669805,
            "85": -0.0003389148012480603,
            "86": 0.0016861879692748616,
            "87": 0.0018685176860202468,
            "88": 0.03945899088634408,
            "89": -0.011508004073073475,
            "90": -0.011734466298965872,
            "91": -0.009065451537629795,
            "92": -0.020615107325794777,
            "93": -0.014334221687316746,
            "94": 0.0033851586658813116,
            "95": -0.003655881752919335,
            "96": 0.02445234707926645,
            "97": 0.006367830637716692,
            "98": 0.00923763539549851,
            "99": 0.00624750937694783,
            "100": -0.04467215717943156,
            "101": -0.022860814385463293,
            "102": -0.017569306554634373,
            "103": -0.009304363970861793,
            "104": 0.009481900999942769,
            "105": 0.0021824073526605626,
            "106": -0.003302194154074784,
            "107": -0.003648068027202158,
            "108": -0.05180344146159381,
            "109": -0.008322936253318739,
            "110": -0.0017721834401317335,
            "111": 0.002897608530863939,
            "112": 0.019278969081270067,
            "113": -0.006387636806675846,
            "114": -0.004289346433429503,
            "115": -0.005913674541306711,
            "116": -0.01894223256784687,
            "117": -0.002822138381051976,
            "118": 0.01134702181861455,
            "119": 0.008131123762919116,
            "120": 0.014667987340108015,
            "121": 0.007873747531899806,
            "122": -0.007619422693447384,
            "123": 0.00471883943467807,
            "124": -0.018246424153134034,
            "125": 0.004066367115072311,
            "126": 0.0064723592546305055,
            "127": 0.0070814185043193605,
            "128": 0.03226316957916603,
            "129": 0.00004516231002003032,
            "130": 0.002513103047453254,
            "131": -0.00011784460294008163,
            "132": -0.04875155458173451,
            "133": 0.008833851355933647,
            "134": 0.0035258954023018297,
            "135": -0.023360607652443886,
            "136": 0.04237096832673459,
            "137": 0.010621424260620835,
            "138": 0.005545856794000353,
            "139": 0.008422256833198458,
            "140": -0.0382446103927581,
            "141": -0.0066465252321923326,
            "142": 0.0013099037156329525,
            "143": 0.010363920662088692,
            "144": 0.03420451607823094,
            "145": 0.003932801430136529,
            "146": -0.013682996245913027,
            "147": 0.00024128929882776361,
            "148": -0.08668138391755792,
            "149": -0.024759289795626832,
            "150": -0.00820336534173471,
            "151": 0.005262476573019665,
            "152": 0.049997496222049735,
            "153": -0.01313141010359336,
            "154": -0.00255777144006926,
            "155": -0.002067929415829237,
            "156": -0.14732086765687416,
            "157": -0.005453466930198796,
            "158": -0.00748513203226498,
            "159": -0.004460270429759302,
            "160": 0.03661652562631331,
            "161": 0.011997124005358944,
            "162": -0.03917095104619701,
            "163": -0.0009293118462739186,
            "164": -0.0722212337874761,
            "165": -0.02484093999594564,
            "166": 0.00031972013532930197,
            "167": -0.01052571658749441,
            "168": 0.21134462785989797,
            "169": 0.07201386131770407,
            "170": 0.027083931982674336,
            "171": -0.020978514534869288,
            "172": -0.04178989192465584,
            "173": -0.016777123473644812,
            "174": 0.0025616250155587068,
            "175": -0.00123005428724254,
            "176": 0.18035659937408163,
            "177": 0.13975739808244025,
            "178": 0.06513354433185295,
            "179": 0.02904581044531578,
            "180": -0.012884754086214168,
            "181": -0.012539509672948207,
            "182": 0.005627080580596037,
            "183": 0.010838581924557018,
            "184": 0.20687326421425303,
            "185": 0.1510526363238962,
            "186": 0.08469794679733385,
            "187": 0.07966706685316055,
            "188": -0.006927623086467409,
            "189": -0.0275185176527295,
            "190": -0.005576413966712125,
            "191": -0.005314843561103183,
            "192": -0.0029732181079436173,
            "193": -0.011470760873354175,
            "194": -0.0062562458577911885,
            "195": 0.001495401063781739,
            "196": -0.059050569759553966,
            "197": 0.00150712783046268,
            "198": -0.006220993513133886,
            "199": 0.003940456690598777,
            "200": -0.04279363427416841,
            "201": -0.020768793541696362,
            "202": -0.01549391531307079,
            "203": -0.01260606988547077,
            "204": -0.004826463966702675,
            "205": -0.03560345217520338,
            "206": 0.10307633154392748,
            "207": 0.12959892465916695,
            "208": 0.1309804289721231,
            "209": 0.10203149750486329,
            "210": 0.130646218044687,
            "211": 0.15841052249738666
          }
        },
        {
          "sx": 1,
          "sy": 1,
          "depth": 212,
          "w": {
            "0": 0.0005919352887952415,
            "1": 0.0072937274464264625,
            "2": 0.002516179441603793,
            "3": 0.007533672893370359,
            "4": -0.014897599993548715,
            "5": 0.00122718980449019,
            "6": -0.013909534095085482,
            "7": -0.0025135301303545474,
            "8": 0.014794224606854792,
            "9": -0.0026089115076688638,
            "10": -0.021169263879689332,
            "11": 0.001378290631464399,
            "12": -0.008596785110554516,
            "13": -0.0034899863263905487,
            "14": -0.00835776476073543,
            "15": -0.003663693703706849,
            "16": -0.001744575083054112,
            "17": -0.0022856881458830623,
            "18": 0.0022799986605242743,
            "19": 0.002524867960703994,
            "20": -0.013914177528749391,
            "21": -0.00030223387911085226,
            "22": -0.0010733262331001378,
            "23": 0.0014542731569457696,
            "24": -0.0027617371996733696,
            "25": -0.010408285333965938,
            "26": -0.0016133784612149683,
            "27": -0.003076272391068439,
            "28": -0.011265675228136734,
            "29": 0.007479596385912047,
            "30": 0.003457346190582281,
            "31": 0.009456852405787133,
            "32": 0.004019761771839015,
            "33": 0.005851899609163391,
            "34": -0.004211614799159773,
            "35": -0.02056159699178589,
            "36": -0.00988476581005848,
            "37": -0.0036062854610933635,
            "38": -0.004859992852443863,
            "39": -0.007149092511364033,
            "40": 0.008815435857488363,
            "41": -0.0065109737466440805,
            "42": -0.0001301890960929933,
            "43": -0.002047329856191196,
            "44": -0.0016468731873137514,
            "45": -0.004923562217250128,
            "46": 0.010598780312320961,
            "47": 0.00862971971389027,
            "48": -0.0012424126204510478,
            "49": 0.0023845173063132643,
            "50": -0.0002956841441787747,
            "51": 0.004388035716968187,
            "52": -0.012502982291008479,
            "53": -0.0072209274977877765,
            "54": 0.006688118086050404,
            "55": 0.006838311562004375,
            "56": -0.011163119191696307,
            "57": -0.015996048706914148,
            "58": 0.004125106795192853,
            "59": 0.001646488490151695,
            "60": 0.005889983238562938,
            "61": 0.000881002478917191,
            "62": -0.009649806687989346,
            "63": -0.004805039960574916,
            "64": -0.007419449725847713,
            "65": 0.009824447110760314,
            "66": 0.005536782347985883,
            "67": 0.002595355362394802,
            "68": -0.00039047753481647986,
            "69": 0.0025952812718659417,
            "70": 0.00696258941588518,
            "71": 0.003795629263840751,
            "72": -0.00936295385430279,
            "73": -0.0017930566050390938,
            "74": 0.004590707579225688,
            "75": 0.005339025676547029,
            "76": -0.007225472030085582,
            "77": -0.005225631083908718,
            "78": -0.0009901168035604568,
            "79": -0.006584207269958167,
            "80": 0.005212675165426347,
            "81": 0.0017873991489718744,
            "82": 0.005835256872138558,
            "83": 0.003141429920980655,
            "84": -0.0021440547038577957,
            "85": -0.00458728723223285,
            "86": -0.000902155721452835,
            "87": -0.016471883585964547,
            "88": 0.006407546064978644,
            "89": 0.0169905242144468,
            "90": 0.000771820264516869,
            "91": -0.0012367108841949627,
            "92": -0.006291490332001635,
            "93": 0.0013225319708663388,
            "94": -0.005039116648568814,
            "95": -0.013988769808213519,
            "96": -0.0016232097301328522,
            "97": -0.016997538825722858,
            "98": 0.0037698532870477958,
            "99": -0.0039609110424573225,
            "100": -0.0018914429383933562,
            "101": 0.0014497301423291125,
            "102": 0.00359992693679633,
            "103": 0.005611039594730796,
            "104": -0.01077910878066758,
            "105": 0.003343495472125515,
            "106": -0.0037131734646698262,
            "107": -0.003291415463753759,
            "108": -0.0025033522732902038,
            "109": 0.0014506285074530835,
            "110": 0.0008159251030340322,
            "111": 0.008857807721816354,
            "112": 0.0005887195569967041,
            "113": 0.0033952067798907375,
            "114": 0.009735905298041619,
            "115": -0.0006168686428817701,
            "116": 0.0058887897162275575,
            "117": 0.012093072614649324,
            "118": -0.006075420393269382,
            "119": -0.001087645739204614,
            "120": 0.0026593200254267525,
            "121": -0.0013381525613393552,
            "122": 0.002245648439600025,
            "123": 0.008352534544352282,
            "124": -0.005878526327740629,
            "125": -0.005689553825567463,
            "126": -0.0037675579246098777,
            "127": 0.0001276657236679995,
            "128": 0.00031616191793765115,
            "129": 0.005124537431158706,
            "130": -0.008815614261997132,
            "131": -0.0009640138849226297,
            "132": 0.004050602454701155,
            "133": 0.002626577244051368,
            "134": 0.009207934318859799,
            "135": -0.003012007603103615,
            "136": 0.003352051672803117,
            "137": 0.008828572549225342,
            "138": 0.021705932522766234,
            "139": 0.010698335860200444,
            "140": -0.011257854073979752,
            "141": 0.0016503861544101457,
            "142": 0.0016661759061400228,
            "143": -0.00031823034869462837,
            "144": 0.005411384824288238,
            "145": -0.011429546133846483,
            "146": 0.00044118799092596244,
            "147": 0.003442684128243903,
            "148": -0.00921255606791297,
            "149": -0.0003182116786740011,
            "150": 0.0021401281870747175,
            "151": -0.004882922418264677,
            "152": 0.004009114462832546,
            "153": -0.0035710143579818954,
            "154": -0.006095701436243441,
            "155": -0.0019007939783252793,
            "156": -0.008077588316898917,
            "157": -0.006338766282547577,
            "158": -0.002662607701526428,
            "159": -0.004782374194139759,
            "160": -0.0018959892086768551,
            "161": -0.005988329640756495,
            "162": 0.009378200613336048,
            "163": -0.0015756935278902402,
            "164": -0.01694349739189303,
            "165": 0.00249170480844982,
            "166": -0.00015629386300645244,
            "167": -0.001135783638701545,
            "168": 0.0008143510796734425,
            "169": -0.01909132395607815,
            "170": -0.0013214561824050632,
            "171": -0.004074881112087865,
            "172": -0.006681048000420716,
            "173": -0.0013340080778389547,
            "174": -0.00398095885011668,
            "175": -0.001896936350226842,
            "176": -0.016725654140503435,
            "177": -0.0066888483034300145,
            "178": -0.004799591718755925,
            "179": -0.005903590433256185,
            "180": -0.00005209616708742871,
            "181": -0.0008894288028687085,
            "182": -0.003786885223543684,
            "183": 0.0035415742357784528,
            "184": 0.009396423745186564,
            "185": -0.002981272926598312,
            "186": -0.012404074705927094,
            "187": -0.010048222083679986,
            "188": 0.009488305124623762,
            "189": 0.0032695187650808627,
            "190": 0.004949676630969605,
            "191": 0.0006657514849646363,
            "192": -0.015418435738581785,
            "193": 0.002226779675444281,
            "194": -0.0031713799888008335,
            "195": 0.0009073811521015862,
            "196": 0.005682840918990347,
            "197": 0.010175370921546968,
            "198": 0.008705743062328351,
            "199": -0.00966572170285575,
            "200": -0.012880003214875353,
            "201": -0.012521570668437924,
            "202": -0.006252317659812107,
            "203": -0.0022288593158874955,
            "204": 0.00442962077572618,
            "205": -0.012017154721925829,
            "206": -0.009143250052139666,
            "207": -0.007959432320573891,
            "208": -0.001966066753961168,
            "209": -0.0004721173095413813,
            "210": -0.008881606552784428,
            "211": -0.0172727621362515
          }
        },
        {
          "sx": 1,
          "sy": 1,
          "depth": 212,
          "w": {
            "0": 0.009919241417447737,
            "1": 0.00011491189120173281,
            "2": 0.000256258030363293,
            "3": -0.006418655989389781,
            "4": -0.007998449013439955,
            "5": -0.0056982878742574145,
            "6": 0.007862582854659458,
            "7": -0.004663048599653126,
            "8": 0.011557967466169527,
            "9": 0.002507807641137328,
            "10": 0.00568647067342235,
            "11": -0.01182667737926255,
            "12": -0.012032468697295037,
            "13": -0.012369857542058387,
            "14": 0.004579251193527949,
            "15": -0.017685407380568337,
            "16": -0.0042248636595124695,
            "17": 0.002606740333945284,
            "18": -0.003903769140938283,
            "19": -0.001487016964861427,
            "20": -0.0028650517162784185,
            "21": -0.00807565188885081,
            "22": -0.002163492535000753,
            "23": -0.014713285454005721,
            "24": -0.006061470469656523,
            "25": -0.002976092415707775,
            "26": 0.0042927418886538685,
            "27": 0.005124618427776565,
            "28": -0.002120850959243997,
            "29": -0.0017187197814101148,
            "30": 0.012013536381944285,
            "31": 0.002216945547157538,
            "32": -0.002392517432746974,
            "33": 0.0008386281294081433,
            "34": -0.0015361865232108537,
            "35": -0.014038770588206503,
            "36": -0.0036895343712406363,
            "37": -0.004066208518505716,
            "38": -0.002851673806410373,
            "39": -0.0025406524871648085,
            "40": -0.003927995104062663,
            "41": 0.014605296836234872,
            "42": 0.008368553292563492,
            "43": -0.004905533148794885,
            "44": -0.015934365210988427,
            "45": 0.0028727143584031836,
            "46": 0.004997284367806649,
            "47": -0.001349510409161883,
            "48": -0.002749701055401211,
            "49": -0.008021828734784964,
            "50": 0.0014812787770264989,
            "51": 0.012653131826875486,
            "52": -0.0029364259904851565,
            "53": 0.006096115470985526,
            "54": 0.007725107473594639,
            "55": -0.004503140300302124,
            "56": -0.006513172281294179,
            "57": 0.0005597913476000006,
            "58": -0.013232019687021233,
            "59": 0.009220491654998624,
            "60": 0.0013527830022082808,
            "61": -0.0023315896922584765,
            "62": 0.007681834666866768,
            "63": -0.0009383186671031748,
            "64": 0.006626338280164903,
            "65": -0.002546214171476087,
            "66": -0.012216570184477851,
            "67": -0.0069470715883545135,
            "68": 0.004969222813312342,
            "69": -0.00009893844752614758,
            "70": 0.007672074354738828,
            "71": 0.02211349441412976,
            "72": 0.0030968140127976143,
            "73": -0.019905177157911895,
            "74": 0.00868111203809331,
            "75": 0.016314110566527748,
            "76": 0.009935230271014683,
            "77": 0.004150463839681966,
            "78": -0.013816322520550437,
            "79": 0.014279427946894721,
            "80": -0.009520637442847703,
            "81": 0.001328316041279682,
            "82": 0.0011845983395201735,
            "83": -0.00005054984098686037,
            "84": 0.011008801442074233,
            "85": 0.008341063743432171,
            "86": 0.003274529787375483,
            "87": -0.0063848197693099655,
            "88": -0.0016380032494902348,
            "89": 0.009064000032910384,
            "90": -0.008290694697259559,
            "91": -0.011659602504276534,
            "92": 0.0021411170574631043,
            "93": -0.0017627516912172138,
            "94": 0.008691150342416958,
            "95": -0.0003208915453279099,
            "96": -0.005848588639530454,
            "97": 0.014690547945441777,
            "98": 0.002477976642520375,
            "99": -0.006073286794938897,
            "100": 0.0033669087644366074,
            "101": 0.012063627009996237,
            "102": -0.007733936326082654,
            "103": -0.01146054752504061,
            "104": 0.001808319575491115,
            "105": -0.0059436745173812025,
            "106": 0.006219089739276095,
            "107": -0.010645081466710579,
            "108": -0.004535740515113109,
            "109": 0.0000878564569682937,
            "110": 0.0005738077509202929,
            "111": -0.0023714019279771534,
            "112": 0.005488858456961105,
            "113": 0.002774812376397807,
            "114": 0.008999788662795456,
            "115": 0.009321374935966763,
            "116": 0.0033949007328848277,
            "117": 0.004761415271723262,
            "118": 0.004116078740488139,
            "119": 0.00825725772871051,
            "120": -0.0037706630426953807,
            "121": 0.0074615113600421295,
            "122": 0.0023201406996462863,
            "123": -0.0007263135651019829,
            "124": -0.011392223765443143,
            "125": 0.013020902095750938,
            "126": 0.004744973278337724,
            "127": -0.006389664379866021,
            "128": -0.013066041614291422,
            "129": 0.0022984523232911862,
            "130": -0.000894726332325392,
            "131": 0.010475146624389977,
            "132": -0.005792173073106308,
            "133": -0.008646224412647958,
            "134": -0.007857185874947163,
            "135": 0.0004062975462548895,
            "136": 0.00007611550597692538,
            "137": 0.004941257797591369,
            "138": 0.007174359884944286,
            "139": -0.002007219865797948,
            "140": -0.010030651728428994,
            "141": 0.005482312167590117,
            "142": 0.00397293704107005,
            "143": 0.003884521489141121,
            "144": -0.0017469520489366871,
            "145": -0.003741840530095883,
            "146": -0.0044468227696035575,
            "147": 0.008871014469415144,
            "148": -0.007294239619631018,
            "149": 0.010855838297556894,
            "150": -0.0013100831614466556,
            "151": 0.007622571731282406,
            "152": -0.01104743609626956,
            "153": -0.00656733211056293,
            "154": -0.00017617868831645739,
            "155": -0.004116045027775669,
            "156": -0.008533999624714923,
            "157": -0.004382868709928597,
            "158": 0.0012980941773603734,
            "159": -0.008617923797380227,
            "160": -0.015243402684035878,
            "161": -0.004113630669336084,
            "162": 0.0016318171463687444,
            "163": -0.01199440387885809,
            "164": -0.0018124773045551752,
            "165": -0.004709100162812979,
            "166": 0.013603602441982195,
            "167": -0.0009058794370793287,
            "168": -0.00813432340384802,
            "169": 0.002725487853233417,
            "170": -0.004250665850768337,
            "171": -0.005919056931684809,
            "172": -0.0019013266902783014,
            "173": 0.00202264041490247,
            "174": -0.003980072613130414,
            "175": 0.007108730506365043,
            "176": 0.0027457478945164186,
            "177": -0.0033605753753358403,
            "178": -0.012333964880312631,
            "179": 0.0020260520564471035,
            "180": -0.0044583667302973955,
            "181": -0.005858336997704426,
            "182": -0.0005910269755309574,
            "183": 0.0013524524221864029,
            "184": -0.008435962344894287,
            "185": -0.006257570058297258,
            "186": 0.0028969265810179457,
            "187": -0.0030822024826480583,
            "188": -0.004540781968895189,
            "189": 0.007896869434982244,
            "190": 0.008668837278104342,
            "191": 0.010829350525929392,
            "192": -0.0029332621515121126,
            "193": -0.002858943034334367,
            "194": -0.004371346190334565,
            "195": 0.0045963651736346265,
            "196": -0.003684628031118072,
            "197": -0.005067540474594678,
            "198": -0.0007915329968368189,
            "199": 0.0005968659270304392,
            "200": -0.007508932184177621,
            "201": -0.01381149571542217,
            "202": -0.008662521674130877,
            "203": -0.002246724870136488,
            "204": -0.00775197349093938,
            "205": -0.0038429184342860575,
            "206": 0.00836250188371131,
            "207": -0.010177537246971218,
            "208": -0.006873948449531245,
            "209": 0.0005826263565768142,
            "210": -0.012905695687346598,
            "211": 0.0025599284322956393
          }
        },
        {
          "sx": 1,
          "sy": 1,
          "depth": 212,
          "w": {
            "0": -0.05272039114523763,
            "1": -0.03750599382964753,
            "2": 0.0036416475625532943,
            "3": 0.0359360572659362,
            "4": -0.04483688830183655,
            "5": -0.1245872392533779,
            "6": -0.13424569368727984,
            "7": -0.12491024143252784,
            "8": -0.01449600657748746,
            "9": -0.005020327050412,
            "10": 0.004621394097913006,
            "11": 0.012825881031970316,
            "12": -0.07028242303504814,
            "13": -0.10114785332857704,
            "14": -0.07015327610595848,
            "15": -0.06632726332717288,
            "16": -0.01440757642875434,
            "17": -0.0067627606887770975,
            "18": 0.00026215355751858327,
            "19": 0.00008765684515618335,
            "20": 0.0319077641055513,
            "21": -0.04202354897916002,
            "22": -0.040363330331284926,
            "23": -0.0037802795052305125,
            "24": -0.06550952567414361,
            "25": 0.004393670835471887,
            "26": 0.0033928781191907204,
            "27": 0.006516480234333392,
            "28": -0.07165940956286798,
            "29": 0.006183338634683305,
            "30": 0.0020029498211096538,
            "31": 0.02120378623426561,
            "32": -0.13544883673796818,
            "33": -0.019861769256683894,
            "34": 0.003516765964035344,
            "35": -0.004787095482559846,
            "36": 0.016606623631701914,
            "37": -0.002121261479967988,
            "38": -0.0017603553266258786,
            "39": 0.03302843064627958,
            "40": -0.20762811002453976,
            "41": -0.008294483172409309,
            "42": -0.004528797857788731,
            "43": -0.007109701860782824,
            "44": 0.02935912142780574,
            "45": 0.023355021991103973,
            "46": -0.00380784535354849,
            "47": -0.016006555192209632,
            "48": -0.09845952402919023,
            "49": -0.002243690349476848,
            "50": -0.0025159047401359684,
            "51": 0.0014857536647800338,
            "52": 0.02859525429479059,
            "53": 0.022352953981395862,
            "54": 0.005955361131394189,
            "55": -0.010326628766865376,
            "56": -0.04409906933900537,
            "57": -0.013437839114086712,
            "58": -0.006238026419215284,
            "59": -0.016564418430765684,
            "60": 0.006020641298424525,
            "61": 0.008709018540780288,
            "62": -0.00826209570791854,
            "63": 0.006790514257262674,
            "64": -0.00011802975125096071,
            "65": -0.009314124631141917,
            "66": -0.005285560253793991,
            "67": 0.005769267532765197,
            "68": -0.021577401186733788,
            "69": -0.009091526311242938,
